svm_type c_svc
kernel_type precomputed
nr_class 37
total_sv 729
rho 0.124127 -0.0669877 -0.152143 -0.0925724 -0.0949524 0.0214202 -0.125183 -0.10164 -0.147768 0.147339 0.207076 -0.178953 0.214622 0.0378123 -0.144852 -0.0563806 -0.157341 0.056964 0.0114393 -0.163283 -0.0767234 0.0730151 0.12666 0.0329048 -0.0509095 -0.0880373 -0.221187 0.0516242 -0.0256097 -0.133309 0.479509 0.0390673 -0.155462 -0.0616239 -0.111715 -0.10511 -0.0982249 -0.0582669 -0.057585 -0.0423705 -0.0045817 -0.0626188 -0.0709526 0.0544538 0.133433 0.0578515 -0.189231 0.116836 -0.127013 -0.102899 -0.0566922 -0.0329566 -0.135629 -0.0790583 -0.0323921 -0.0603268 0.0103699 0.150092 -0.0841994 -0.0891166 -0.043572 -0.224608 -0.118881 0.0486815 -0.183602 -0.0600817 -0.0369425 -0.190929 -0.124087 -0.188874 -0.09067 -0.05114 -0.0528831 0.0250124 0.00849915 -0.148075 0.120922 0.0288023 0.0916075 0.158998 0.0057731 0.0923879 -0.0446428 -0.123267 0.184558 -0.0942332 0.0408034 -0.0597284 -0.00120713 0.00327591 0.257955 0.0827669 0.0362638 0.0270258 0.150441 -0.112729 0.0611357 0.00924485 0.0456357 0.000436108 0.0351518 -0.142644 -0.0516147 0.0140554 0.0733654 0.250044 -0.076658 0.0664119 -0.0116044 -0.00695905 0.0572266 0.168828 0.241403 -0.0609812 0.352416 -0.0845071 0.00139479 0.00988827 -0.0260372 0.00547484 0.0853062 0.0198461 0.051349 0.230303 0.176987 0.0523302 0.0248281 0.0425853 -0.10097 0.0684172 -0.0527843 0.0167813 -0.019601 0.0499882 -0.13543 -0.0144448 0.0545268 0.04543 -0.0105953 -0.190448 0.0894004 0.0282965 -0.320755 -0.00782856 0.186149 -0.0191797 0.0845102 -0.145767 0.0140543 0.0416214 -0.100159 -0.0222161 0.0398953 -0.0715739 -0.117784 0.186184 0.114075 -0.0069617 0.0184948 -0.0301896 -0.203218 -0.0284144 0.033315 0.0243262 -0.0196627 0.0320366 -0.139635 -0.084711 -0.0102573 0.0857953 -0.0233103 -0.0218149 -0.154397 0.189622 0.0695565 0.144477 0.0248999 0.151776 -0.0446563 -0.0654473 0.097568 -0.121708 0.0143514 0.15299 0.0550208 -0.0618443 0.172453 0.107809 0.132212 0.0637035 0.020938 -0.0945413 0.0874574 0.0983944 0.0224863 -0.0115761 0.0296182 -0.118887 -0.00972492 -0.0400852 0.0462442 -0.0203663 0.0638889 -0.0371818 0.153869 0.217919 0.0733539 0.148408 -0.190367 -0.0668157 0.00945784 -0.0392482 0.00571348 0.0100116 -0.0545333 -0.0348875 0.144932 0.0749603 -0.000121659 -0.0656595 -0.0868643 -0.177356 0.00334314 0.127286 -0.0406813 -0.0105456 0.0253057 -0.140081 -0.0680937 -0.0147185 -0.0659241 -0.0680416 0.13444 0.117488 0.0358797 0.0284088 0.130565 0.039883 0.0396667 0.134543 0.00935291 0.047918 0.0660859 -0.0435862 0.0233158 0.135828 0.189943 0.173827 0.0588289 0.053829 -0.0514299 0.175858 0.0183932 0.0247623 -0.0386482 -0.00647582 -0.110754 -0.0295105 0.0221738 0.122766 -0.0250428 0.121583 0.164827 0.956138 0.129514 -0.101523 0.00755042 0.086797 -0.0214012 0.129648 -0.0797432 -0.0683998 -0.0538255 0.215085 0.0750496 -0.000780096 -0.0138364 0.029142 -0.0967843 0.03337 0.0981146 -0.035096 0.0387526 0.0148196 -0.178269 -0.065761 -0.00569862 0.094591 0.100753 0.141777 -0.0483647 0.409226 0.0220138 -0.0147295 0.105501 -0.0168231 -0.00688078 0.0680948 -0.0671298 -0.0195111 0.25073 0.172938 0.101003 0.0256711 -0.0670221 -0.165985 0.0597502 -0.113863 0.0236037 0.00282915 0.0413257 -0.135668 -0.104235 -0.0821951 0.00110962 0.0375336 -0.296869 0.0176245 -0.204663 -0.113619 0.0526956 -0.173605 -0.0385022 -0.0421202 -0.0578874 -0.436106 0.110036 -0.0785513 -0.0702414 -0.110921 -0.0233244 -0.219741 -0.0347484 -0.0496594 -0.0747697 -0.0603196 -0.0544033 -0.15363 -0.113984 -0.0395873 -0.0461728 -0.250757 0.0984928 -0.303251 -0.170765 0.0189518 -0.186523 0.0750541 -0.194279 -0.133219 -0.172733 0.0472947 0.323169 0.0341978 -0.170926 -0.121366 -0.43386 0.0467649 -0.0577866 -0.115328 -0.139635 -0.0514456 -0.328332 -0.147486 -0.0407397 -0.0575067 0.17869 -0.0530673 -0.130011 -0.0354829 -0.0635015 0.201668 0.131612 0.0267033 0.0804467 0.195121 0.164842 0.160212 0.0389858 0.0859372 -0.129733 0.324817 -0.00531129 -0.0435002 0.051608 0.0359613 -0.201065 1.61702e-05 0.0283984 0.079292 -0.448576 -0.226225 -0.196977 -0.87653 -0.152203 -0.0533583 -0.220277 -0.131027 0.147961 0.0067737 -0.0737837 -0.238969 -0.22739 -0.351436 -0.122622 -0.178118 -0.107242 -0.301818 -0.193237 -0.188422 -0.137065 -0.187784 -0.0424284 0.0197521 0.0409111 0.032688 0.013978 0.12333 -0.0939016 0.0342139 0.292597 0.240981 0.182978 0.078586 -0.0185318 -0.107947 0.188446 0.119262 0.0245275 -0.021126 -0.0314742 -0.115652 -0.0442657 -0.0602488 0.00278572 0.311355 -0.0701028 0.0350184 0.150349 0.0485193 -0.122785 0.470296 0.20086 0.104368 0.0206034 0.230714 -0.0655258 0.0433904 0.0412015 0.0461372 0.0754263 0.0490547 -0.0960533 -0.0357766 -0.00422996 0.0481745 -0.0772732 0.0111063 0.0618661 0.0192752 -0.0595125 0.158064 0.100494 0.025238 0.0340474 -0.157821 -0.0901261 -0.11821 -0.0620582 0.0134332 -0.00284968 0.0367569 -0.220964 -0.085081 -0.131073 -0.0651714 0.0103569 0.091629 -0.000885696 -0.0136085 0.142278 0.237193 0.130264 0.173838 0.0121469 -0.0636049 0.10409 0.121802 0.0812246 0.0717347 0.0752161 -0.064528 0.0141874 0.000866766 0.0294169 0.0905501 0.0394568 -0.000729718 0.170898 0.313119 0.21032 -0.00352135 0.0337587 -0.114656 0.0975239 0.0510813 -0.0451516 -0.0617147 0.0282827 -0.290616 -0.0426692 0.00690029 -0.0258077 0.0269917 -0.119304 0.0927637 0.106841 0.052819 -0.0394363 0.0101504 -0.10675 0.0120575 -0.0163487 0.110501 -0.119347 -0.0249044 -0.190181 -0.130333 -0.0873705 0.0601628 -0.0196366 0.0931123 0.177014 0.0998716 0.097994 0.00362667 -0.105289 0.0400452 0.0185211 -0.0859371 -0.0396837 0.0526484 -0.102637 -0.0126912 0.00471711 -0.0407106 0.171355 0.088974 0.110097 0.0307722 0.0207847 -0.0430179 0.081036 0.0848805 0.044313 0.0291166 0.0473957 -0.0742053 0.045637 0.0192701 0.0233482 0.132574 0.0514449 -0.10533 -0.140574 -0.250723 -0.0839099 -0.0906535 -0.118171 -0.304523 0.022949 -0.190921 -0.130768 -0.0439174 -0.0618486 -0.000981139 -0.0290489 -0.100398 -0.2739 -0.00278832 -0.0256957 -0.362527 -0.193279 -0.289614 -0.287443 -0.18382 -0.491701 -0.0577743 -0.0953406 -0.065546 -0.246918 -0.169039 -0.00439355 -0.127843 -0.0850805 -0.179069 -0.374572 -0.167626 -0.262786 -0.050329 -0.0873245 -0.263837 0.0590994 -0.030902 -0.0609543 0.12451 -0.00572557 -0.115544 -0.0460277 -0.0562493 -0.0184485 -0.110222 0.164928 -0.0421342 0.0229419 0.00843091 -0.00488677 -0.131402 -0.045299 -0.0233638 -0.0324362 0.231919 0.204275 0.0705949 0.143421 0.106983 -0.00428751 0.0343995 0.0580754 0.0726729 -0.0327095 -0.124866 -0.0781161 -0.0964791 -0.311076 -0.126142 -0.0432859 -0.076197 -0.01633 0.0215198 -0.0200201 -0.0886555 -0.0485234 -0.0929603 -0.0023216 0.0880732 0.129309 -0.0547002 -0.0153456 0.0237474 -0.00631139 0.0580667 -0.188914 -0.0458384 -0.0267361 0.00909656 -0.114278 -0.0602796 -0.0743432 -0.00712009 0.0835562 0.0823563 0.111251 0.0382923 0.073385 -0.0227759
label 48 49 50 51 52 53 54 55 56 57 60 65 66 67 68 69 70 71 72 73 74 75 76 77 78 79 80 81 82 83 84 85 86 87 88 89 90
nr_sv 66 37 36 14 15 24 21 24 19 24 67 34 15 37 15 35 22 7 19 15 3 5 24 19 14 19 15 1 22 19 12 11 3 2 2 7 5
SV
0 0 0 0 0 0 0 0 0 0 0 0 0 0.04276635801064274 0 0 0 0 0 0 0 0 0.08875477708638074 0 0 0 0 0 0 0 0 0 0 0 0 0 0:1 
0 0 0 0 0 0 0 0 0 0 0 0 0 0 0 0 0 0 0 0 0 0 0 0 0 0 0 0 0 0 0 0 0 0 0.0171941816649324 0 0:2 
0 0 0 0 0 0 0 0 0 0 0 0 0 0 0 0 0 0 0 0 0 0 0.003613900723028395 0 0 0 0 0 0 0 0 0 0 0 0 0 0:3 
0 0 0 0 0 0 0 0 0 0 0 0 0 0 0 0 0.06339149805529937 0 0 0 0 0 0 0 0 0 0 0 0 0 0 0 0 0 0 0 0:6 
0 0 0 0 0 0 0.001309842699409227 0 0 0 0 0 0.05293271608618154 0 0 0 0 0 0 0 0 0 0 0 0 0 0 0 0 0 0 0 0 0 0 0 0:8 
0 0 0 0 0 0 0 0 0 0 0 0 0 0 0 0 0 0 0 0 0.01795502795127776 0 0 0 0 0 0 0 0 0 0 0 0.0439709891721517 0 0 0 0:9 
0 0 0 0 0 0 0 0 0 0 0 0 0 0 0 0 0 0 0 0 0 0 0 0 0.6572019266446389 0 0 0 0 0 0 0 0 0 0 0 0:17 
0 0 0 0 0 0 0 0 0 0 0 0 0 0 0 0 0 0 0 0 0 0 0 0 0 0 0 0 0.0171475891712979 0 0 0 0 0 0 0 0:19 
0 0 0 0 0 0 0 0 0 0 0 0 0 0.06372479617287888 0 0 0 0 0 0 0 0 0 0 0.2707323937802066 0 0 0 0 0 0 0 0 0 0 0 0:20 
0 0 0 0 0 0 0 0 0 0 0 0 0 0 0 0 0 0 0 0 0 0 0 0 0.1189107268135565 0 0 0 0 0 0 0 0 0 0 0 0:25 
0 0 0 0 0 0 0 0 0 0 0 0 0 0 0 0 0 0 0 0 0 0 0 0 0.2292443367512783 0 0 0 0 0 0 0 0 0 0 0 0:26 
0 0 0 0 0 0 0 0 0 0 0 0 0 0.005273976031202508 0 0 0 0 0 0 0 0 0 0 0.9314942902758533 0 0 0 0 0 0 0 0 0 0 0 0:30 
0 0 0 0 0 0.03212648257455648 0 0 0 0 0 0 0 0 0 0 0 0 0 0 0 0 0 0 0 0 0 0 0 0 0 0 0 0 0 0 0:31 
0 0 0 0 0 0 0 0 0 0 0 0 0 0 0 0 0 0 0 0 0 0 0 0 0.2915641357187835 0 0 0 0 0 0 0 0 0 0 0 0:32 
0 0 0 0 0 0 0 0 0 0 0 0 0 0 0 0 0 0 0 0 0 0 0 0 0 0 0 0 0 0 0.01430977970771524 0 0 0 0 0 0:34 
0 0 0 0 0 0 0 0 0 0 0 0 0 0 0 0 0 0 0 0 0 0.1619921662151966 0.0126967229260702 0.02468110629518598 0 0 0 0 0 0 0.3913999573530867 0.2557824784717996 0 0 0 0.01142316028867331 0:36 
0 0 0 0 0 0 0 0 0 0 0 0 0 0 0 0 0 0 0 0 0 0 0 0 0.5243800030542415 0 0 0 0 0 0 0 0 0 0 0 0:38 
0 0 0 0 0 0 0 0 0 0 0 0 0 0 0 0 0 0 0 0 0 0 0 0 0 0 0 0 0 0 0.2191497676544573 0 0 0 0 0 0:41 
0 0 0 0.075637022281447 0 0 0 0 0 0 0 0 0 0 0 0 0 0 0 0 0 0 0 0 0 0 0 0 0 0 0 0 0 0 0 0 0:42 
0.1803834808636276 0 0 0 0 0 0 0 0.03416946281516756 0 0 0 0 0 0 0 0 0 0 0 0 0 0 0.04388288687720208 0 0 0 0.01872619984964939 0 0 0 0 0 0 0 0 0:43 
0 0.05260324914282868 0 0 0.01674397865635156 0 0 0.1238122756349216 0 0 0 0.01407495153467256 0 0 0.01632919917949361 0 0 0 0 0 0 0 0 0 0 0 0 0.04022911732696333 0 0 0 0 0 0 0 0 0:44 
0 0 0 0 0 0 0 0 0 0 0 0 0 0 0 0 0 0 0 0.008509725385066648 0 0 0 0 0 0 0 0 0 0 0 0 0 0 0 0 0:45 
0 0 0 0 0 0 0 0 0 0 0 0 0 0.7129137025922779 0.03002051178008382 0.1000178268725768 0 0 0 0 0 0.2000538366891224 0 0 0 0.03391419714153153 0 0 0 0.2431130461868112 0 0 0 0 0.01856210348341017 0 0:46 
0 0 0 0 0 0 0 0 0 0 0.004603437031819458 0 0 0 0 0 0 0 0 0 0 0 0 0 0 0 0 0 0 0 0 0 0 0 0 0 0:48 
0 0 0 0 0 0.01787310305396925 0 0 0 0.02774539782430296 0 0 0 0 0 0 0 0 0 0.09817363698253012 0.001729394546563477 0 0 0 0.873140418287262 0 0 0 0.01466057602512935 0 0 0 0 0 0 0 0:49 
0 0.02856366652273273 0.1772915461745514 0.05647346078095881 0.1463225221018599 0 0.0958506107466358 0 0.09712335089569558 0 0.01385535275693961 0 0 0 0.0487723327164185 0.007485798316919096 0 0 0.1513421788286587 0 0 0.0329398363023152 0 0 0 0 0.01689009992839439 0 0 0 0 0 0 0 0 0.0804433074068847 0:51 
0 0 0 0 0 0 0 0 0 0 0 0.01008959639428441 0 0 0 0 0 0 0 0 0 0 0 0 0 0 0 0 0 0 0 0 0 0 0 0 0:52 
0 0 0 0 0.02662070419745617 0.07488937399501674 0 0 0 0 0 0.09321737982538338 0.008493156991937048 0.7219979251811409 0 0 0 0 0 0 0.03187129230166937 0 0 0 0.3884019239953027 0 0 0.000702211950494463 0.1200545245793666 0 0 0 0 0 0 0 0:53 
0.1626140075763059 0 0 0 0 0 0 0 0 0.005335905944688477 0.0008069955170196337 0.01187228679285993 0 0 0 0 0.1053545583367128 0 0 0 0 0 0 0 0 0 0.05031805965694331 0 0 0 0 0 0 0 0 0 0:54 
0 0 0 0 0 0 0 0 0 0 0 0 0 0 0 0 0 0 0 0 0 0 0 0 0.196637474326907 0 0 0 0 0 0 0 0 0 0 0 0:55 
0 0 0 0 0 0 0 0 0 0 0 0 0 0 0 0 0 0 0 0 0 0 0 0 0.1402026375584768 0 0 0 0 0 0 0 0 0 0 0 0:56 
0 0 0 0.1031023900150606 0 0 0 0 0 0.05309780052616596 0 0 0.2829918399233881 0 0 0 0.03495417710806147 0 0 0 0 0 0 0 0 0 0 0 0 0 0 0 0 0 0 0 0:57 
0 0 0 0 0 0 0 0 0 0 0 0 0 0 0.01920485270365026 0 0 0 0 0 0 0 0 0 0 0 0 0 0 0 0 0 0 0 0 0 0:58 
0 0 0 0 0 0 0 0 0 0 0 0 0 0 0 0 0 0 0 0.1632785482986159 0 0 0 0 0 0 0 0 0 0 0.1331176518244962 0 0 0 0 0 0:61 
0 0 0 0 0 0 0 0 0 0 0.02066287309545898 0 0 0 0 0 0 0 0 0 0 0 0 0 0 0 0 0 0 0 0 0 0 0 0 0 0:62 
0 0 0 0 0 0 0 0 0 0 0 0 0 0 0 0 0 0 0 0 0 0 0 0 0 0 0 0 0 0 1 0 0 0 0 0 0:63 
0 0 0 0 0 0 0 0 0 0 0 0 0 0 0 0 0 0.06376761527191901 0 0 0 0 0 0 0 0 0 0 0 0 0 0 0 0 0 0 0:64 
0 0 0 0 0 0 0 0 0 0 0 0 0 0 0 0 0 0 0 0.03717838853434904 0 0 0 0 0 0 0 0 0 0 0 0 0 0 0 0 0:67 
0 0 0 0 0 0 0 0 0 0 0 0 0 0.09615280556574972 0 0 0 0 0 0 0 0 0 0 0 0 0 0 0 0 0 0 0 0 0 0 0:69 
0 0 0 0 0 0 0 0 0 0 0 0 0 0.07676882281364719 0 0 0 0 0 0 0 0 0 0 0 0 0 0 0 0 0 0 0 0 0 0 0:72 
0 0 0 0 0 0 0 0 0 0 0 0 0.02503794525678725 0 0 0 0 0 0 0 0 0 0 0.0002696029321820094 0.1004941783147548 0 0 0 0 0 0 0 0 0 0 0 0:74 
0 0 0 0 0 0.01596978027401755 0 0.002718485202717492 0 0 0 0 0.02042436629413828 0 0 0 0.03962820288235708 0 0 0 0 0 0 0 0.2148937777407149 0 0.2290662130985506 0 0 0 0 0 0 0 0 0 0:76 
0 0 0 0 0 0 0 0 0 0 0 0 0 0 0 0 0 0 0 0 0 0 0 0 0 0 0 0 0 0 0 0 0 0 0 0.02176849095526175 0:77 
0 0 0 0 0 0 0 0 0 0.02355366808745865 0.0385275046898297 0 0 0 0 0 0 0.06221476958213822 0 0 0 0 0.1254071649718637 0 0 0 0 0 0 0 0 0 0.02445052191683308 0 0 0 0:79 
0 0 0 0 0 0 0 0 0 0 0.05841234798683681 0.04550991594859313 0 0 0 0.01594814613385733 0 0 0 0 0 0.02222785457280015 0 0 0 0.01765579752950726 0 0.02900542794067836 0 0 0 0 0.1021333572424039 0 0 0 0:80 
0.1047494613657705 0.1355771933821152 0.08921113546419746 0.1201269517125749 0.04325917048419272 0.2142139343496443 0.1313037336125522 0.09728459972713391 0.1809856452284148 0.1937590017770819 0.06696087455873483 0.04136718062560852 0.3524646934525441 0 0.04209811250456583 0.07027959328322683 0.1410205513049634 0 0.251859589653994 0.1136506662718447 0.1319791872299113 0.1044194348675371 0.02158102689985015 0.1347944769635854 0 0.1097852948500396 0.1189315310610479 0.1609244646660159 0.06363027465027293 0.1369262560845966 0 0.3956675860641267 0 0.1008678409899196 0.0973905050660604 0.13707384461211 0:82 
0 0 0 0 0 0 0 0 0 0 0 0.03295197776479794 0 0 0.004682393968358033 0.02184918614055252 0 0 0 0 0 0 0 0 0 0 0 0.04251541904379049 0 0 0 0 0 0 0 0 0:83 
0 0 0 0 0 0 0 0 0 0 0 0 0 0 0 0 0 0 0 0 0 0.005669615805992029 0 0 0 0 0 0 0 0 0 0 0 0 0 0 0:85 
0 0.03463155754760933 0 0 0 0 0 0 0.05088962430964659 0 0 0 0 0 0 0 0 0 0 0 0 0 0 0 0 0 0 0 0 0 0 0 0 0 0 0 0:86 
0 0.03954808597207354 0 0 0 0 0 0.0168756426075017 0.03064077108349917 0 0 0 0 0.1493676720220611 0 0 0 0 0 0 0 0 0 0 0 0.05936529054655628 0 0 0 0 0 0 0 0 0 0 0:89 
0 0 0 0 0 0 0 0 0 0 0 0 0 0 0 0 0 0 0 0 0 0 0 0 0.2373392674709977 0 0 0 0 0 0 0 0 0 0 0 0:92 
0 0 0 0 0 0 0 0 0 0 0.2009749877460346 0 0 0 0 0 0 0 0 0 0 0 0.1718691930107618 0.04137952592452446 0 0 0 0 0 0.006402094591344224 0 0 0 0 0.04549365514139107 0 0:93 
0 0 0 0 0 0 0 0 0 0 0 0 0 0 0 0 0 0 0 0 0 0 0 0 1 0 0 0 0 0 0 0 0 0 0 0 0:95 
0 0 0 0 0 0 0 0 0 0 0 0 0 0 0 0 0 0 0 0 0 0 0 0 0.1604720114939202 0 0 0 0 0 0 0 0 0 0 0 0:97 
0 0.01329047017856761 0.06772551433291164 0.0248035998557567 0.01445943882886424 0 0.05468046355065302 0.1276509818181795 0.03281717068624132 0 0.238389215176937 0.3173828531177791 0 0 0.1394257838692288 0.09402599086897286 0 0.1959711653453372 0.04707619010802182 0 0.02378830893175517 0 0.1343138553966774 0 0 0.1414507793759266 0 0.0468804527360845 0 0.01569566896510099 0.1903381516442396 0 0.07042594985208815 0.05003548256672587 0.04298436221856183 0.04128581412717056 0:98 
0 0 0 0 0 0 0 0 0 0 0 0 0 0 0 0 0 0.03944058945385111 0 0 0 0 0 0.07865885367475586 0 0 0 0 0 0 0 0 0.02869589903878141 0 0 0 0:100 
0 0 0.001024385429095854 0 0 0 0 0 0.02872426960163587 0 0 0 0 0 0 0 0 0 0 0 0 0 0 0 0 0 0 0 0 0 0 0 0 0 0 0 0:101 
0 0 0 0 0.0665702238165123 0.02728817787228432 0 0.1528427537839668 0 0 0 0.01885224798644444 0 0 0 0 0.01656150280430628 0 0 0 0 0 0 0 0 0 0 0.01067099504676061 0.09557788983160759 0 0 0 0.03264746162020581 0 0 0 0:102 
0 0 0 0 0 0 0 0 0 0 0 0 0 0 0 0 0.04246910577631714 0 0 0 0 0 0 0 0 0 0 0 0 0 0 0 0 0 0 0 0:103 
0 0 0 0 0 0 0 0 0 0 0 0 0 0 0 0 0 0 0 0 0 0 0 0 0.3550807773170478 0 0 0 0 0 0 0 0 0 0 0 0:104 
0 0 0 0 0 0 0 0 0 0 0 0 0 0 0 0 0.001158049474497279 0 0 0 0 0 0 0 0.1756895849573116 0 0.1091215095338739 0 0 0 0 0 0 0 0 0 0:105 
0 0 0 0 0 0 0 0 0 0 0 0 0 0 0 0 0 0 0 0 0 0 0 0 0.2228287451725496 0 0 0 0 0 0 0 0 0 0 0 0:106 
0 0 0.02705993352544983 0 0 0 0 0 0 0 0 0 0 0 0 0 0 0 0 0 0.00173721289893892 0 0 0 0 0 0 0 0 0 0 0 0 0 0 0 0:107 
0.1765994882065279 0 0 0 0 0 0 0 0 0 0.06059236488967082 0 0 0 0 0 0 0.001738165894850877 0.2815469173358319 0 0 0 0.07553084197251021 0.1073134781429864 0 0 0 0 0 0.08836596747868747 0 0 0 0.02571938821781807 0.07195490776406951 0 0:111 
0 0 0 0 0 0 0 0 0 0 0 0 0 0 0 0 0 0 0 0.08344284659889485 0 0 0 0 0 0 0 0 0 0 0 0 0 0 0 0 0:112 
0 0 0 0 0 0 0 0 0 0 0 0 0 0 0 0 0 0 0 0.08161121424427489 0 0 0 0 0 0 0 0 0 0 0.5010045209972214 0.03144453355010467 0 0 0 0 0:113 
-0 0 0 0 0 0 0 0 0 0 0 0 0 0 0 0 0 0 0.05939298516522959 0 0 0 0 0 0 0 0 0 0 0 0 0 0.02033191054570943 0 0 0 0:118 
-0 0 0 0 0 0 0 0.01225632569490038 0 0 0 0 0 0 0 0 0 0 0 0 0 0 0 0 0 0 0 0.08252550045503412 0 0 0 0 0 0 0 0 0:121 
-0 0.03495670878980538 0.02634584371694042 0 0 0 0 0 0 0 0 0 0 0 0.006419374467192016 0 0 0 0 0 0.02740766495982988 0 0 0 0 0 0.01245181469059162 0.02508735911311058 0 0 0 0 0 0 0 0 0:125 
-0 0 0 0 0 0 0 0 0 0 0 0 0 0 0 0 0 0 0 0.005858445964353693 0 0 0 0 0 0 0 0.02355626963036546 0 0 0 0 0 0 0 0 0:130 
-0 0 0 0 0 0 0 0 0 0 0.04140658190588116 0 0 0 0 0 0 0 0 0 0 0 0 0 0 0 0 0 0 0 0 0 0 0 0 0 0:138 
-0 0 0.002271649278421769 0 0 0 0 0 0 0 0.006450621431996157 0 0 0 0 0 0 0 0 0 0 0 0 0.1346305136054996 0 0 0.03729451144485854 0 0.03954893784598949 0 0 0 0 0 0 0 0:139 
-0 0 0 0 0 0 0 0 0 0 0 0 0 0 0.03338074734458038 0 0 0 0 0 0 0 0 0 0 0 0 0 0 0 0 0 0 0 0 0 0:140 
-0 0 0 0.01254067372367572 0.02010521083142799 0 0 0 0 0 0 0 0 0 0 0 0 0 0 0 0 0 0 0 0 0 0 0 0 0 0 0 0 0 0 0 0:141 
-0 0 0 0 0 0 0 0 0 0 0 0 0 0 0 0 0 0 0.007011286942022435 0 0 0 0 0 0 0 0 0 0 0 0 0 0 0 0 0 0:142 
-0 0 0 0 0 0 0 0 0 0 0 0 0 0 0 0 0 0 0.04789188018436049 0 0 0 0 0 0 0 0 0 0 0 0 0 0 0 0 0 0:143 
-0.1283165878498593 0 0 0 0.04262453089923489 0 0 0.001415077693085396 0 0 0 0.01154133314651574 0.0252866778359297 0.01315856949467293 0 0.0003327053709398856 0.03631337365562355 0 0 0 0 0 0 0 0.06449847441468709 0 0 0 0.002590165917808998 0 0.02372989473313795 0 0 0 0 0 0:146 
-0.05766158219904303 0.0253019099323299 0 0 0 0 0 0.03349654344498174 0 0 0 0.01813724625460625 0 0.1035115937563106 0.05120477761362926 0.003958849331252027 0 0 0.2708726383249863 0.00440585091958562 0 0.1343321027621839 0 0.2122838497338104 0 0.09398580019406176 0 0.04494050398359552 0 0.08089536645921781 0.09130360168659024 0.07462683748686462 0.07460180339477038 0.03466746585514567 0.07621879423464897 0.002826315511978064 0:147 
-0 0 0 0 0 0 0 0 0.01281575614461849 0 0 0 0 0 0 0 0 0 0 0 0 0 0 0 0 0 0 0 0 0 0 0 0 0 0 0 0:148 
-0 0 0 0 0 0 0 0.01490174286659015 0 0 0 0.06907766957501486 0 0 0.05725014773264456 0.170036090368114 0 0.1881970852331572 0 0 0 0 0.1593426927990055 0 0 0 0 0.0271762873602602 0 0.1728580150839276 0 0 0.01076515765769092 0 0.09118318608330754 0 0:149 
-0 0 0 0 0 0 0 0 0 0 0.001182027167557732 0 0 0 0 0 0 0 0 0 0 0 0 0 0 0 0 0 0 0 0 0 0 0 0 0 0:150 
-0 0 0 0 0 0 0 0 0 0 0 0 0 0 0 0 0 0.02724607555972169 0 0 0 0 0 0 0 0 0 0 0 0 0 0 0.00464449031064402 0 0 0 0:151 
-0.009103462847488156 0 0 0 0 0 0 0 0 0 0 0 0 0 0 0 0 0 0 0 0 0 0 0 0 0 0 0 0 0 0.02019312613253194 0 0 0 0 0 0:153 
-0 0 0 0 0 0 0 0 0 0 0.03897115304502902 0 0 0 0 0 0 0 0 0 0 0 0 0 0 0 0 0 0 0 0 0 0 0 0 0 0:155 
-0 0 0 0 0 0 0.0898002678562871 0 0 0 0 0 0 0 0 0 0 0 0 0 0 0 0 0 0 0 0 0 0 0.09606590155966607 0 0 0 0 0.05087665507274339 0 0:156 
-0 0 0 0 0 0 0 0 0 0 0 0 0 0 0 0 0 0 0 0 0 0 0 0 0 0 0 0 0 0 0 0 0 0 0 0.04743484499960565 0:157 
-0 0 0 0 0 0 0 0 0 0.006762226742992517 0.01575356441501706 0 0.01305769052448416 0 0 0 0 0 0.08890097030581984 0.07445899350630433 0 0.03138717555017671 0 0.007449684114162088 0 0 0 0 0 0 0.04484795196906942 0.01642625148798358 0 0.006138660876803863 0 0.001341659184031156 0:158 
-0.1508068128883559 0.1176587604081506 0.141890125636338 0.06903986798814951 0.1656627559514971 0.08818059018148797 0.05638451648284915 0.07598242929170906 0.2428310468015607 0.048368349921711 0.058358728793119 0.1553117898614548 0.05246872520521674 0.1867488264429595 0.06253656309386593 0.06231311406671723 0.004964039922552873 0 0 0 0.006059427351069877 0.02517858210982827 0 0 0.1185118670068811 0.1613839607528879 0.114898482833425 0.03753693384444575 0.0822648056515998 0 0 0 0.03649155629721153 0.03036019851268589 0.032205125446302 0.05772384886907776 0:160 
-0.004602858188418566 0.0143650062002848 0.02397091062953872 0.05766960421558268 0 0.01337688074825419 0.1084651152251827 0 0.03512994348393062 0.1958626087463746 0.03388869285112102 0.03824994676604719 0.1641411790298901 0 0.01122350886718788 0.0576061095464502 0.1609369942160931 0 0.07205849642909413 0 0.1108906775036777 0.01524286224342718 0.09370640517315165 0.07979344171641242 0.03937162480255529 0 0.05278305295297013 0.1405387275781796 0.03964689543729841 0.06524313109099522 0 0.08440950530152108 0 0.02280885903972645 0.02101608636541478 0.04543530920601073 0:161 
-0.04993243295180267 0.0313320357995827 0.03058906063461855 0.0395721624047285 0 0.1064879274604188 0.06391108569868077 0.05604497995130419 0.05591993203991232 0 0.03749767495052563 0.03556344256116622 0.0449821178391915 0.05198650005835837 0 0 0.02800719824346981 0 0 0 0.04933358886275976 0.07244803694750672 0.1736163713580498 0.03380942745800031 0.09239017567189957 0 0.01092803093697597 0 0.03258933789183678 0 0 0.1078781010962388 0.0003201352633359776 0.03004934719780708 0.1335663469154557 0.06346127010743965 0:162 
-0.006261434674319079 0 0 0 0 0 0 0 0 0 0.01026340223465547 0 0 0.009604568898056774 0 0 0 0.04616424790478781 0.02280940180950612 0 0 0 0.04070370470210635 0.1103579143410288 0 0 0 0 0 0.03489624329466314 0.01344552349328175 0.01517452702104636 0.03273267329371058 0 0 0 0:163 
-0.07623405129440634 0 0 0 0 0 0 0 0.02581574315724502 0 0.1535625376221811 0 0 0 0 0 0 0 0 0.07625372836014845 0 0 0 0 0 0 0.009332250149562751 0 0 0 0 0 0 0 0 0 0:164 
-0 0.002010360498414627 0 0 0.009233978430602023 0 0 0.004873538073170853 0 0 0 0 0 0 0 0 0 0 0 0.1396799149893138 0 0 0 0 0 0 0.01494882650646558 0 0 0 0.03369444837657111 0 0.05973409235050367 0 0 0 0:165 
-0 0 0.02090770601028259 0 0.03579209013922086 0 0 0.0320556235556928 0 0 0 0.02382415237031097 0 0 0 0 0 0.1049262791409755 0 0 0 0 0 0 0 0.0274817725870192 0 0 0.0404552903654574 0 0 0 0 0 0 0 0:166 
-0 0 0 0 0 0 0 0 0 0 0 0 0 0 0 0 0 0 0 0 0 0 0 0 0 0 0 0 0 0.2840348812187993 0 0 0 0 0 0 0:169 
-0.1414272151185388 0 0 0.0119453747753475 0 0.008617716244232524 0 0 0 0.005503585958121418 0.01888005073362003 0 0 0.002469863909123455 0 0 0.01554057757449328 0 0.04368040982737604 0.02473819273665908 0 0 0 0 0.08858821896567116 0 0.05288469202352752 0 0 0 0.06819116221870873 0.02578524310672515 0 0 0 0 0:171 
-0 0.01905197803438569 0.0210932874221825 0.02673981350892824 0 0.0249881379202103 0 0.01999974361788806 0 0 0 0.003367110766626328 0 0 0 0 0 0.03210722261009965 0 0 0.02516434706007267 0 0 0 0 0 0 0.03061391843002902 0 0 0 0 0 0 0 0 0:172 
-0 0 0 0.09219080786633584 0 0 0 0 0 0 0 0 0 0 0 0 0 0 0 0 0 0 0 0 0 0 0 0 0 0 0 0 0 0 0 0.008251194096364196 0:174 
-0 0.01899260050517556 0 0 0 0.03425990345402642 0 0.008840874129950086 0 0.03800620906342297 0.00130305809388507 0 0 0 0.0002820386406146767 0 0.01057849807817022 0 0 0 0 0 0 0 0 0 0 0 0 0 0 0 0 0.04303817156816989 0 0 0:175 
-0 0 0 0 0 0 0.06316368736744621 0 0 0 0 0 0 0 0 0 0 0 0 0 0 0 0 0 0 0 0 0 0 0 0 0 0 0 0 0 0:176 
-0 0 0 0 0 0 0 0 0 0 0 0 0 0 0 0 0 0 0 0 0 0 0 0 0 0 0 0 0 0 0 0 0 0 0.002062308961853737 0 0:177 
-0 0 0 0 0 0 0 0 0 0.01552168293092351 0 0 0 0 0 0 0 0 0 0 0.005507086007104046 0 0 0 0 0 0 0 0 0 0 0 0 0 0.01722119908521932 0 0:178 
-0 0 0 0 0 0 0 0 0 0 0.01710250483835586 0 0 0 0 0 0 0 0 0 0 0 0 0 0 0 0 0 0 0 0 0 0 0 0 0 0:179 
-0 -0 0 0 0 0 0 0 0.001494616149512872 0 0 0.07203289620343313 0 0 0 0 0 0.0571058605780962 0 0 0 0 0 0.01710512995795923 0 0.3501726767165277 0 0.09065659675640314 0 0 0 0 0 0 0 0 0:181 
-0 -0 0 0 0 0.06134687503984479 0 0.07111123294005228 0 0 0.03335794910223974 0 0 0 0.05199967120417598 0.1130238040054232 0.05101089035702707 0.03249600448763342 0 0 0 0 0 0 0 0 0 0 0 0 0 0 0.02487312521304008 0.04923199402049677 0 0 0:182 
-0 -0 0.0008059462308754945 0 0 0 0 0 0 0 0 0 0 0 0 0 0 0 0 0 0 0.007940700334695981 0 0 0 0 0 0 0 0 0 0 0 0 0 0 0:183 
-0 -0 0 0 0 0 0.2885474953007499 0 0 0 0 0 0 0 0 0 0 0 0 0 0.1130722770029889 0 0.01587380194112236 0 0 0 0 0 0 0 0 0 0 0.001725841831036406 0 0.4143082069051814 0:185 
-0 -0 0 0 0.03236320478914484 0 0 0 0 0 0 0.03055630351973066 0 0 0 0 0 0 0 0 0 0 0 0 0 0 0 0.02867455694847371 0 0 0 0 0 0 0 0 0:204 
-0 -0 0 0 0 0 0 0.01637574134276396 0 0.01570958452659767 0 0 0 0 0 0 0 0 0 0.0335585985640483 0 0 0 0 0 0 0.01186266531196973 0 0 0 0.0195522213315989 0 0.02977609387836368 0 0 0 0:205 
-0 -0 0 0 0 0 0 0 0 0 0.009425692580746513 0 0 0 0 0 0 0 0 0 0 0 0 0 0 0 0 0 0 0 0.02670635984225577 0 0 0 0 0 0:206 
-0 -0 0 0.04111948850394029 0 0 0 0 0.01399761615158545 0 0.02293418443400234 0 0 0 0 0 0 0 0 0 0 0 0 0 0 0 0 0 0 0 0 0 0 0 0 0 0:207 
-0 -0 0 0 0 0 0 0 0 0 0 0 0 0.01136854727257409 0 0 0 0 0 0 0 0 0 0 0 0 0 0 0 0 0 0 0 0 0 0 0:208 
-0 -0 0 0 0 0 0 0.03105698176104351 0 0 0.0588455037319025 0 0 0 0 0 0 0 0 0 0 0 0 0 0 0 0 0 0 0 0 0 0.0005746146808747316 0 0 0 0:209 
-0 -0 0 0 0 0 0 0 0 0 0 0 0 0 0 0 0 0 0 0 0 0 0 0 0 0 0 0 0 0 0 0 0 0.007377243537580593 0 0 0:212 
-0 -0 0 0.03660102866440548 0 0.0287312909944566 0 0 0 0 0.07360777255097037 0 0.003358119274804994 0 0 0 0 0 0.01835441909249051 0.06914051617453996 0 0 0 0 0 0 0 0.05702144990220132 0 0.005087626388477724 0 0 0 0 0 0 0:215 
-0.05025791935824123 -0 0 0 0 0 0 0.04919668382356167 0 0 0.07510549556268589 0 0 0 0 0 0 0 0.04056567199854007 0 0 0 0 0.1492831043248078 0 0 0 0 0 0 0.09660465397659888 0 0 0 0 0 0:216 
-0.07692928946800116 -0.1013453213042921 0.201988446895783 0.1874981252111474 0.171297006096152 0.05211377838564291 0.05718074096543007 0 0.08845016422194957 0.03596859135031472 0 0.04338051391993739 0.05800359989563842 0.05949687571220608 0.1294166138918751 0 0.1131290092575616 0 0.004187649374734436 0.005537940638315401 0.02208736275212033 0.09467627236260626 0.06648192449433618 0 0.08169065775395537 0.008333174458808292 0.03464124547522452 0.009442971325778553 0.1054980006651149 0.04372587466230095 0.02311388566244431 0.03485823002566252 0 0 0.05058431216626277 0 0:217 
-0 -0 0 0.0289476334327235 0 0 0.02582590002270467 0 0 0.08135745792747803 0.02935706583196855 0 0 0 0 0 0 0 0 0 0 0.0001202975181495179 0.04415746102420481 0 0 0 0 0 0 0 0 0 0 0.02830992035494763 0 0 0:218 
-0.01282123525355366 -0 0 0 0.0613450010948924 0.09426935425377896 0 0.01046120754657821 0 0 0.001551962670841589 0.05864113219661526 0 0.04738080094604407 0.2227877790629705 0.241490739620712 0 0.124958018415747 0.09108758109770158 0 0 0.09641877377577272 0 0.02484381129992033 0 0.07346987197533317 0 0.06326559159875872 0 0.05666361588572598 0 0 0.0889537671801192 0 0 0 0:219 
-0 -0 0 0 0 0 0 0 0 0 0 0 0 0 0 0 0 0 0 0 0 0 0.04135981224602409 0 0 0 0 0 0 0 0 0 0 0 0 0 0:220 
-0 -0.02606094857263758 0 0 0 0 0 0 0 0 0 0 0 0 0 0 0 0 0.007271711719493847 0.04459290607953643 0 0 0.002701985094195259 0.008304935738534962 0 0 0 0 0 0 0 0.007109148933644165 0.1078141985071228 0.006737364049488819 0.03889127933011964 0 0:222 
-0.03473191643898652 -0 0 0 0 0.02318007617069705 0.1640100963046605 0.02769708348036245 0 0.1425296365198615 0 0.05222116564552602 0.05771474009178935 0.07463220163915059 0 0 0 0 0 0.01479131766371413 0.03050563058158743 0 0.06328943605520275 0.01686471027640088 0.03400538193320046 0 0 0.01291715425888855 0 0.02031805529733994 0 0.05295768440358351 0 0 0.03274224433485368 0.1177147153661251 0:223 
-0 -0 0 0 0 0 0 0 0 0 0 0 0 0 0 0 0 0 0.04868859820031916 0.01720935200270989 0 0 0.04157524762035621 0 0 0.01230369771128313 0 0 0 0.06831907100941072 0 0.05649152457189034 0 0 0.02839469289914044 0.08485447027667534 0:225 
-0 -0 0 0 0 0 0 0 0 0 0 0 0 0 0 0 0 0 0 0 0 0 0 0 0 0 0 0 0 0 0 0 0 0 0 0.246869083829779 0:226 
-0 -0 0 0 0 0 0 0.1683396852802131 0.048665507494203 0 0 0.04147087614870879 0 0 0 0 0 0 0.01777683456342613 0 0 0 0 0 0 0.09011987468004168 0 0 0 0 0 0 0 0 0 0 0:228 
-0 -0 0 0 0 0 0.05127565614131491 0 0 0 0 0 0 0 0 0 0 0 0 0 0 0 0 0 0 0 0 0 0 0 0 0 0 0 0 0.1893864670296498 0:229 
-0 -0 0 0 0 0 0 0 0 0 0 0 0 0 0 0 0 0 0 0 0 0 0 0 0 0 0 0 0.01546351065443734 0 0 0 0 0 0 0 0:230 
-0 -0 0.001127316380217592 0 0 0 0 0 0 0 0.04848081313759339 0 0 0 0 0 0 0 0 0 0 0 0 0 0 0 0 0 0 0 0.01177167716396472 0 0 0 0 0.06320430470933429 0:233 
-0 -0 0.02845173417962079 0.00131933511115942 0 0 0 0.05869502855050997 0 0 0 0 0 0 0 0 0 0 0 0 0 0.1024113381478736 0 0 0 0 0 0 0.01675916549802432 0 0 0 0 0.04084395112836546 0 0 0:234 
-0.03317653993293784 -0 0 0.01419739311816987 0 0 0 0 0.04823501527938669 0 0 0 0 0 0 0 0 0 0 0 0 0 0.04530646424271447 0 0 0 0 0 0 0 0 0.01283174281960168 0 0.002954215962056055 0.005410056976450964 0 0:235 
-0 -0 0 0 0 0 0 0 0 0 0 0 0 0 0 0 0 0 0 0 0.004359970555262129 0 0 0 0 0 0 0 0 0 0 0 0 0 0 0 0:236 
-0.02392977411951315 -0 0 0 0 0 0 0 0 0 0.04772830891501938 0 0.1206581640026868 0 0 0 0.05812673509279196 0 0 0 0 0.04565503937588709 0 0 0.05480001054405161 0 0.03817504889445182 0 0 0 0 0 0 0 0 0 0:238 
-0.0390788881583204 -0.03659831133723859 0.09896857624542953 0 0.09433852510717336 0.01061072959967835 0 0.04827672938692378 0.1249903796634998 0.03424593596835241 0 0.1260225384195133 0 0.03719922322547391 0.0880584358422941 0 0.04108745377385827 0.03834721028962017 0 0 0 0 0 0.02456287446550972 0 0.1032931695692035 0.06976629779950179 0.0656182287706296 0.1365361766099746 0 0.01712524709775494 0 0.008095952153333094 0 0 0 0:239 
-0 -0 0 0 0 0 0 0 0.04634637587721047 0 0 0 0 0 0 0 0 0 0.01000122275304167 0 0 0 0 0.018945285117641 0 0 0 0 0 0 0 0.06453369178467433 0 0.04497264855561177 0.05667935652588612 0 0:240 
-0.03328866001637305 -0 0 0 0 0 0 0 0 0.04138829452819525 0 0 0.01886867015223256 0 0 0 0 0 0.04556794992408138 0.01911682722291704 0 0 0 0 0.06777282490295282 0 0.08732711786350163 0 0 0 0 0 0 0 0 0 0:241 
-0 -0 0 0.005156056498942295 0 0.04706158929912663 0 0.07604095084891063 0 0.001986903863402946 0 0 0.1353949718428365 0 0 0 0.04158592931334734 0 0 0 0 0 0 0 0.01261022035619662 0 0 0 0 0 0 0 0 0 0 0 0:242 
-0 -0.09966477895396098 0 0 0 0 0 0 0.06800798839011571 0 0 0.007789881843001289 0 0.01556212344908015 0 0 0 0 0.011928188672587 0.006825166414092378 0.05573353100319305 0 0.04235242338395499 0.004266599056779383 0 0 0 0.0115701267344828 0 0 0.01161785149041253 0 0 0 0 0 0:243 
-0 -0 0.02217244120163453 0.0433018984085257 0 0 0 0 0 0 0 0 0 0 0 0 0 0 0 0 0 0 0 0 0 0 0 0 0 0 0 0 0 0 0 0 0:244 
-0 -0 0 0 0 0 0 0 0 0 0 0 0 0 0 0 0 0 0 0 0 0 0 0 0 0 0 0 0 0 0.001939304187111979 0 0 0 0 0 0:245 
-0 -0 -0 0 0 0 0 0 0 0 0 0 0 0 0 0 0 0 0 0.03424971045554023 0 0 0 0 0 0 0.007329564404256346 0 0 0 0 0 0.01352267399813462 0 0 0 0:253 
-0 -0 -0 0 0 0 0 0 0 0 0 0 0 0 0 0 0 0 0 0 0 0 0 0 0 0 0.006080019041993439 0 0 0 0 0 0 0 0 0 0:257 
-0 -0 -0 0 0 0.0753823700433701 0 0 0 0 0 0 0 0 0 0 0 0 0 0 0 0 0 0 0 0 0 0 0 0 0 0 0 0 0 0 0:258 
-0.04414173837471018 -0 -0 0 0 0.1237155709839716 0 0 0 0 0 0 0.03239546032257151 0 0 0.04539745793277456 0.004750920599037663 0 0 0 0 0 0 0 0 0.01414209151116482 0 0 0 0 0.008302269717631676 0 0 0 0 0 0:259 
-0.1894854984770273 -0.08102091965505918 -0 0 0.0749831189928601 0 0.04019115609255737 0.01518111211587762 0.2399626653860548 0 0.1373293797930367 0.09557409098696394 0.006495513606405717 0.1853669073768603 0 0 0 0 0.1275737597187465 0.06768179454730947 0 0.1878532152937036 0.01043577684890631 0.1114739909850338 0.08298330619915843 0.1196100582706798 0.09686943635478469 0.08160357931622662 0 0.07829480622218471 0.1066869710469981 0.07667833990846072 0 0.01495528109342411 0.03274387456829395 0.02229726136649444 0:261 
-0 -0 -0 0.0967014523836722 0 0 0 0 0 0 0 0 0 0 0 0 0 0 0 0 0 0 0 0.002488839267976526 0 0 0 0 0 0.03663735419226254 0 0 0 0 0 0 0:262 
-0.02118903837765711 -0.01045534781323254 -0 0 0 0.0628975083857649 0.03996201501658185 0.02095914267591222 0 0.1541055552155529 0 0 0 0 0 0 0 0 0 0.06208912392384068 0.1159775314362421 0 0 0 0.05747896707871814 0 0 0.00859612692559344 0.04974885757003456 0 0 0.0495720801387323 0.01788150517871235 0.004899477839349409 0 0.0869690010906867 0:263 
-0.01222662692736117 -0.005998846236676057 -0 0 0.1499501984305123 0.0859091939423902 0 0.127017742067433 0.02824395806044651 0 0 0.2295285936215828 0 0.02561467411779731 0 0.04862770807721108 0 0.09980935392603858 0 0.05310809595518691 0.02113930956548793 0 0.02507849651965275 0.03305266788207483 0.04871451737957399 0.04572072075891744 0.004729845335334522 0.03296650024655194 0.1000674498914555 0 0.06861999989045461 0.02007485389803152 0.06227627283147261 0.04764319883128623 0.0163333622010902 0 0:264 
-0.00447655379595648 -0.01302956912641128 -0 0 0.1458514224455528 0.1474506745538598 0 0 0 0 0 0 0 0.1108095895097566 0 0 0 0 0 0.0008809674092737018 0 0 0 0 0.04606862570188143 0 0 0 0.02987510275526917 0 0.0132051303755733 0 0.02445173409801147 0 0 0 0:265 
-0.00447824769813484 -0.02791424814937314 -0.1374838111102895 0 0.2439073452656279 0 0 0.1835141041910115 0 0 0.03432766337147695 0.2417198056837511 0 0 0.1634458266557121 0.09634962775125624 0.1078324907404345 0.06198802925524057 0 0 0 0.004495790363561002 0.03387810197891687 0.02831673424266539 0 0.1121032208538907 0.002115327503659366 0.07289770566079663 0.2745558668086761 0 0 0 0.05754186347844892 0 0 0 0:266 
-0.05417959673285551 -0 -0.2148983063787398 0.4163757120002117 0.01599088256538624 0 0.08710341612890349 0.0589410642621088 0.0216661039360425 0.1060619464070624 0.1058134066115604 0 0.3447669459337122 0 0.1565035978240644 0.0920207060550622 0.2882666518358535 0 0.1295312221417491 0.05603482811324535 0.002645026954705868 0.1233725651924951 0 0.007996940630657062 0.03154554035050903 0 0.07199263236014229 0.04794977199293439 0.1378936287474259 0.06655769295588594 0.03342466915193665 0 0.01725409867251595 0 0 0.1434701228431569 0:267 
-0 -0 -0 0 0 0 0.05491000698027237 0 0 0.08722946228003527 0 0 0 0 0 0 0 0 0 0 0.08801195488657221 0 0 0 0 0 0 0 0 0 0 0 0 0.01041088841781275 0 0.02144921958610833 0:269 
-0 -0 -0 0 0 0 0 0 0 0 0 0 0 0 0 0 0 0.08080619255734887 0 0 0 0 0 0 0 0 0 0 0 0.01560900214431127 0.01376139997784417 0 0 0 0 0 0:270 
-0.03213521454250371 -0.1286496523475703 -0.00113234364453157 0.1126550929023541 0 0.1387444451326276 0.05026465113335846 0.0522824521412552 0.1542209609702032 0 0.1093010610727887 0.05977787247114911 0.007679233153019678 0 0 0 0 0 0 0 0.04094965414910234 0 0.2448064301702049 0.05691946691676257 0.02368769327346231 0.02166302950161029 0.1130113274083298 0.007738321290492983 0.04452052224155244 0 0 0.07276234238553195 0 0.08475734015449513 0.1249185721325788 0 0:271 
-0 -0 -0 -0 0 0 0 0 0 0 0.0450266658446884 0 0 0 0 0 0 0.001147648298045083 0 0 0 0 0 0 0 0 0 0 0 0 0 0 0 0 0 0 0:273 
-0 -0 -0 -0 0 0.09166579238437544 0 0 0 0 0 0 0 0 0 0 0 0 0 0 0 0 0 0 0 0 0 0 0 0 0 0 0 0 0 0 0:275 
-0 -0.04821199431613564 -0 -0 0 0 0 0 0 0 0 0 0 0 0 0 0 0 0.009209448949425773 0 0 0 0 0 0 0 0.03783650226081603 0 0 0 0 0 0 0 0 0 0:278 
-0 -0 -0 -0 0 0.03140288127985342 0 0 0 0 0 0 0 0 0 0 0 0 0 0 0 0 0 0 0 0 0 0 0 0 0 0 0 0 0 0 0:282 
-0 -0 -0 -0 0 0.1035933871150537 0 0 0 0 0 0 0 0 0 0 0 0 0 0 0 0 0 0 0 0 0 0 0 0 0 0 0 0 0 0 0:283 
-0 -0 -0.04057712856996833 -0.365026654813115 0.07820381527672569 0.2107668780978136 0.04375452587308914 0.1091070572434302 0.1259970331729862 0.249801087800663 0.1460912643068261 0.1070064653971295 0.2974048647878849 0.01647565485059688 0.1275866988737729 0.1466219329923559 0.2979573910499178 0.0527328333311743 0 0.04672947076711594 0.07349558320744019 0.1297788912770466 0 0.07707013521322316 0 0.1023656303485594 0.1346571932984936 0.05745212270175199 0.1694875080507489 0 0 0.02483598422027395 0.03143171691849684 0.003242436023008453 0 0 0:288 
-0.03848639287330598 -0 -0 -0 0.06339267928282974 0 0 0 0.07859764375545519 0 0 0.012631541061438 0.05505832097389405 0.07295765504992137 0 0 0 0.003367263077594711 0.01580980992413253 0 0.05769829932457186 0.007581537434578597 0.1000997262159147 0.1039649928178975 0.05275859480845559 0 0 0.06769710963110458 0.04659641159266251 0 0.0313101243095452 0.04744663305716131 0.04196839548121756 0.06811752027069949 0.04970584298225884 0 0:289 
-0 -0 -0 -0 0 0.1061708030578245 0 0 0 0 0 0 0 0 0 0 0 0 0 0.05573838994828841 0 0 0 0 0 0 0 0 0 0 0 0 0 0 0 0 0:291 
-0 -0 -0 -0 0 0 0.00180490179883983 0 0 0 0 0 0 0 0 0 0 0 0 0 0 0 0 0 0 0 0 0 0 0 0 0 0 0 0 0 0:292 
-0 -0 -0.0006170185852282003 -0 0 0 0 0 0 0.140086319095192 0 0 0 0 0 0 0 0 0.02505813255378378 0 0.03696201841696482 0 0 0 0 0 0 0 0 0 0 0 0 0.02198875736855204 0 0.07290177621883735 0:293 
-0.06097167260539687 -0.1295817709895006 -0 -0.09935727744258192 0.02156622125185482 0.03237341458247732 0 0 0 0 0 0.03802741120804266 0 0.05296202265811318 0 0 0.03684546814483834 0.05186016890416837 0.04246527240675033 0.004908278619023087 0.02919221582531406 0 0 0.00765239445296211 0.0820278934893113 0 0.004789716845691745 0 0 0.1180000058536307 0.03039232109546284 0 0 0.01898407460091422 0.01131778792752205 0 0:295 
-0.1960753806090261 -0.1075796100278901 -0.2469100319602227 -0.08355184611914905 0 0 0.2506881894535391 0.1599282429542473 0.01988583740438941 0 0.2231810168508208 0.08650134650186431 0.03847708482931611 0.100693398081359 0 0 0 0.0155146761234564 0.1089543338129851 0.05230273459116529 0 0.06011942368290601 0.1954991125882931 0.001690894865892617 0.1385357930058465 0.0461414984423256 0.02196552256424605 0 0 0.0916183154168113 0.1308302960664953 0.1148964652729086 0.0522320884807561 0.01430268739296197 0.07854011310315966 0.2192776673305937 0:296 
-0 -0 -0 -0 0 0 0 0 0 0 0 0 0 0 0 0 0 0 0 0 0.04364859196356359 0 0 0 0 0 0 0 0 0 0 0 0 0.02548811962512418 0 0 0:297 
-0.08460997855806907 -0.0243249291492217 -0.07003677983359466 -0.07779647891139199 0.2927608248740426 0.05763487024673918 0 0.1138027128337827 0.07052516039590399 0.02376113515529163 0.1107961339142564 0.1260477881570838 0.1112512712138909 0.06065963133194103 0.2563313836826492 0.1926550872488286 0.1207717695378331 0.09561684455148622 0.08097962866887284 0.07475049833220952 0 0.1713871000457199 0.02207054448508217 0.06361533473092734 0.0302489791376772 0.1111524809213525 0.0662990524801568 0.1153807561818679 0.209749081761386 0.02339211175559116 0.06695504210630077 0 0.06539188279638158 0.01226858591833411 0 0 0:298 
-0 -0 -0 -0 0 0 0 0 0.07568373419640088 0 0 0 0.04086432030332243 0 0 0 0 0 0 0 0 0 0.04488969744436101 0 0 0.006532555121859574 0 0.00868980618123253 0 0 0 0.01463038591897889 0 0 0.05474201952945661 0 0:300 
-0 -0 -0 -0 -0 0 0 0 0 0 0 0 0 0 0 0 0 0 0.003057266579628927 0 0.04845665543021617 0 0 0 0 0 0 0 0 0 0 0 0 0 0 0 0:301 
-0 -0 -0 -0 -0 0 0 0 0 0 0 0 0 0.02463438172453903 0 0 0 0 0 0 0 0 0 0 0 0 0 0 0 0 0.06034532510138623 0 0 0 0 0 0:304 
-0 -0 -0 -0.1372302186641288 -0 0 0 0 0 0 0 0 0 0 0 0 0 0 0 0 0 0 0 0 0 0 0 0 0 0 0 0 0 0 0 0 0:305 
-0 -0 -0 -0 -0.1196469748592524 0 0 0.02222352026881603 0 0 0 0 0 0 0 0.07254876149345606 0 0.04737905950080387 0.02655894901287151 0.02509788766457465 0 0 0 0 0 0 0 0.02840417664232426 0 0.03878705729772747 0 0 0 0 0 0 0:307 
-0 -0.03110405549864138 -0 -0 -0 0 0 0 0 0 0 0 0 0 0 0 0 0.0106872995265352 0 0 0 0 0 0 0 0 0 0 0 0 0.02976039062388222 0 0.04241401282768288 0 0 0 0:314 
-0 -0 -0 -0.06142338816075386 -0 0 0 0 0 0 0 0 0 0 0 0 0 0 0 0 0 0 0 0 0 0 0 0 0 0 0 0 0 0 0 0 0:320 
-0 -0 -0.103274114831613 -0.1157303274253948 -0 0 0.03309067100861466 0.04906914977830737 0 0.1253000780471454 0 0.1524507123525697 0.03225494716872093 0 0.2418387245657837 0 0.1019550005260177 0.01146866872391729 0 0 0.02598378365694742 0.05286489464673811 0.02829853013834112 0 0 0 0 0 0.1708528321486338 0 0 0 0.03404834714145405 0 0 0.02273308067862489 0:321 
-0 -0 -0 -0.04654565986779794 -0.04454743103118557 0 0 0 0 0 0 0 0 0 0 0 0.05982529859033317 0 0 0 0 0 0 0 0 0 0 0 0.3725377415586675 0 0 0 0 0 0 0 0:322 
-0.001020472085144328 -0 -0 -0 -0 0 0 0 0 0 0 0 0 0 0 0 0 0 0 0.08763266936660544 0 0 0 0.002235700731813419 0.03376144003869355 0 0 0 0.02975990431563592 0 0 0 0 0 0 0 0:323 
-0 -0 -0 -0 -0.07835256315187214 0 0 0 0 0 0 0 0.01658700187300447 0 0 0 0 0 0.005349952698631971 0.03056167667444584 0 0 0 0 0.00402372740247755 0 0 0 0 0 0.03061395945287736 0 0 0 0 0 0:325 
-0 -0 -0 -0 -0 0 0 0 0 0 0 0 0 0 0 0 0 0.03307809416356326 0 0.01021287292799787 0 0 0 0 0 0 0 0 0 0 0 0 0 0 0 0 0:326 
-0.001257813149433305 -0 -0 -0 -0 0 0 0 0 0 0 0 0 0 0 0 0 0 0 0 0 0 0 0 0.03833238698988531 0 0 0 0 0 0 0 0 0 0 0 0:327 
-0 -0 -0 -0.06305245843458575 -0.1505809095473149 0.09942446586710663 0 0.0371638577361821 0 0 0.03860683853664665 0.02353094075195081 0.09008139358771737 0.03416892145391821 0 0.08155783048047199 0.007421837344777627 0.01297062564121341 0 0.001753741857475568 0 0.09128861947483354 0.007630813939866479 0 0 0 0 0 0.3251593369722533 0.01321916169571107 0.06736813246625431 0.01604755432123468 0 0 0 0 0:332 
-0 -0.0334988047803724 -0.07912665375263762 -0 -0 0 0 0 0 0.005862727429610829 0 0 0 0 0 0 0 0 0 0 0 0 0 0 0 0 0 0 0 0 0 0 0 0 0 0 0:333 
-0.03378686850468961 -0 -0 -0 -0 0 0 0 0 0 0 0 0 0.04884463745448025 0 0 0 0 0 0 0 0 0 0 0 0 0 0.03319650708667007 0 0 0 0 0 0 0 0 0:334 
-0 -0 -0 -0 -0 0 0 0 0 0 0 0 0 0 0 0 0 0 0 0 0 0 0 0 0 0 0 0 0 0 0 0 0 0.01063495556214986 0.01377785724000411 0 0:335 
-0 -0 -0 -0 -0 0 0 0 0.09147530585032358 0 0.07612722300019917 0 0 0 0 0.1345364567026192 0 0.05295636013072015 0 0 0 0 0.06619702859854316 0 0 0.116666688017072 0.01392824755095398 0.01321996792082962 0 0 0.009094728783045927 0.06996332839550198 0.02824644340258966 0 0.02591154066007124 0 0:336 
-0.1557505003399917 -0.1724988826374769 -0 -0.0160880236505782 -0 0.08866629347175835 0.1124010014621952 0.07438905436359269 0.3735765815398135 0.03819381048249403 0.1367609417369056 0.07350695285106658 0.04145808815656294 0.0894498217460159 0 0.1706459005195842 0.03343297353505309 0.0734283477337061 0.2015818124739898 0.04927105689778345 0.03398320999389243 0 0.08143622615725671 0.1119597703711457 0.137802121169756 0.08400377213813429 0.08005191364927759 0.1407808492241418 0.002504277868786277 0.09805069120008547 0 0.01013847471890438 0.1054484976020987 0.1384792221775924 0.0599876151571569 0.07744472524968922 0:337 
-0.06176909920319552 -0.03631682333549219 -0.176942968503112 -0.1553182802593246 -0.06279566209582779 0.09086644633339416 0.06390659465986603 0.1248133456509286 0.09981170460752885 0.1079829449613783 0.1098367324174216 0.09737693982998204 0.0927483302079411 0.1360360163454536 0.1184722466294344 0.04028660433278262 0.06153990486330949 0.02118858887424906 0.01417707072404675 0.01176604446327457 0.06706379407330247 0.2161499867209188 0.09889695764597382 0.1342203922066284 0.03549497335872628 0.1790361269391478 0.08838706540701574 0.09868825667881118 0.1195090903414334 0.03049708255713982 0.03934337993529834 0.08694500415385904 0.02635465320701824 0.0128441545374643 0.06697505214066835 0.09196014211297153 0:338 
-0 -0 -0 -0 -0 0 0 0 0 0 0 0.1730915284651778 0 0 0.1554480707300826 0 0 0 0 0 0 0 0 0 0 0.01567121224043998 0 0 0 0 0 0 0 0 0 0 0:340 
-0.02255792039792105 -0 -0 -0 -0 0 0 0 0 0 0 0.3095504368127177 0 0.02444937629682433 0 0 0 0.01381736453902949 0 0 0 0 0 0 0 0 0 0 0 0 0 0 0 0 0 0 0:341 
-0 -0 -0 -0 -0 0 0 0.07482880020009548 0 0.006111571045594325 0 0.007489483593449543 0.05517496424786109 0 0.03934889132275892 0.00655095073177661 0.070898463631939 0.006286989255935965 0 0 0.03770932811063574 0.006375402492744083 0 0.0108185306678275 0 0 0 0 0.02047902673036999 0 0 0 0 0 0 0 0:342 
-0 -0 -0 -0.01628303493078103 -0 0.1615045668344943 0 0.09971125999961801 0 0 0.02471666161766425 0.009151138658334192 0 0 0 0 0 0 0 0 0 0 0 0 0 0 0.02638377702798281 0 0 0 0 0 0 0 0 0 0:344 
-0.03783336440486136 -0 -0 -0.01901157630659427 -0 0 0 0 0 0 0 0 0 0 0 0 0 0 0 0 0 0 0 0 0.01283327276768145 0 0.01522958798762747 0 0 0 0 0 0 0 0.007248535289177981 0 0:345 
-0 -0 -0 -0 -0 -0 0 0 0 0 0 0 0 0 0 0 0 0 0 0 0 0 0 0 0.007061139706450688 0 0 0 0 0 0 0 0 0 0 0 0:348 
-0 -0 -0 -0.2627631854597643 -0 -0.1481094484615744 0 0 0 0 0 0 0 0 0 0 0 0 0 0.001404648647360258 0 0 0 0 0 0 0 0 0.06601546805839449 0 0 0 0 0 0 0 0:353 
-0 -0 -0 -0 -0 -0 0 0 0 0 0 0 0 0 0 0 0 0 0 0.05295020742020234 0 0 0 0 0.07239018683074025 0 0 0 0 0 0 0 0 0 0 0 0:355 
-0 -0 -0 -0.02298303157300785 -0.04212546665258522 -0 0.01987703651831134 0 0 0 0 0 0 0 0 0 0 0 0 0 0.002271013967041692 0 0 0 0 0 0 0 0 0 0 0 0 0 0 0 0:357 
-0 -0 -0 -0 -0 -0 0 0 0 0 0 0 0 0 0 0 0 0 0 0 0 0 0 0 0.0006645790843301045 0 0 0 0 0 0 0 0 0.009083384922583785 0 0 0:359 
-0 -0 -0 -0 -0 -0 0 0.1264869655696263 0 0 0 0 0 0 0 0 0 0 0 0 0 0 0 0 0 0 0 0 0 0 0.04260875501651979 0 0.01365998312697995 0 0 0 0:363 
-0 -0 -0 -0 -0 -0 0 0 0 0.1485859322172534 0 0 0 0 0 0 0 0 0 0 0 0 0 0 0 0 0 0 0 0 0 0 0 0 0 0 0:366 
-0 -0 -0 -0 -0.0367097777823441 -0 0 0 0 0 0 0 0 0 0 0 0 0 0 0 0 0 0 0 0 0 0 0 0 0 0 0 0 0.04427832478285355 0 0.03866160159765535 0:367 
-0 -0 -0 -0 -0 -0 0 0 0 0 0 0 0.1216444552864514 0 0 0 0.138409854451575 0 0 0 0 0 0 0 0.003844886745181586 0 0.02801296346590053 0 0 0 0 0 0 0 0 0 0:369 
-0.1323709239990163 -0.1056779022052443 -0.01121854215360766 -0.03394433042408506 -0.09529666196484822 -0.01853041167295818 0 0 0.07737206205179989 0 0.1656346198758215 0 0.132694084935831 0.151691198831627 0 0 0.07834956748873043 0.003946596736689739 0.06426921989883778 0.05571730016357984 0 0.02136531744120719 0.04603113468882639 0.08571364610367985 0.2411420161735784 0 0.1696851272320536 0.03737434892478993 0.08786805181618468 0.04203107396848925 0.03326032585479603 0.01433599213031028 0.002897970864321594 0 0.009210201357337054 0.03052999708099282 0:370 
-0.1690983475537655 -0.07471296108128926 -0.1341235758331717 -0 -0.007232559092308416 -0 0.03437139711551004 0.0182953671439565 0.02841486940836739 0.09089210952285398 0.01084264292286074 0.01060461982256958 0.1140524105893385 0.1415923425398851 0.1653417327535487 0.1649907412880951 0.01844721501447341 0.06306203910361696 0.1509525387750428 0.05724002823854802 0.07758574635310565 0.1227852256723878 0.1530245644215983 0.06982161486274792 0.1244292440994324 0.1722484072895049 0.03600029435250435 0.1295083594245842 0.02076048548153965 0.08443565074868642 0.02690631353381633 0.08610619856601784 0.07689023921529473 0.07070741485520134 0.09047545128000885 0.09876300964566957 0:371 
-0 -0 -0 -0 -0.08962772556358377 -0.151041551789123 0.04008646151688251 0.1742064116145474 0.02567928326718338 0.04612156180284865 0.0001364791573056118 0.19916410938891 0.06085928538291495 0.02753434627256921 0 0.0873395125916355 0.02364312726933951 0.06806320544151161 0 0.07775372184370256 0.007589392102668934 0 0 0.04925116619941723 0 0.006590536385436162 0 0.01604059926537777 0.1612093570977292 0.01437113919638473 0.08171518152357762 0.04834901191232267 0.05589781612351134 0.03072133958022064 0.009829324979174089 0 0:372 
-0 -0 -0 -0.2232519976190351 -0.02574827242667601 -0 0 0 0.002988029401229916 0 0 0 0.0264615343469323 0 0 0 0.1348854290623753 0 0 0 0 0 0 0 0 0 0 0 0.08280391944992448 0 0 0 0 0 0 0 0:373 
-0.01321933465704814 -0 -0 -0.06833069523407774 -0 -0.1227803605830978 0 0 0.04195222876383294 0 0.2453321026867318 0.2188174015986581 0 0.03521478758289453 0.05387824383504997 0 0 0.04466714314106028 0 0 0 0 0 0 0 0.02459620591700079 0.08393924833605666 0.01933920948150405 0 0 0.04959117735544337 0 0 0 0 0 0:374 
-0 -0 -0 -0 -0 -0 0 0 0 0 0 0 0 0 0 0 0 0 0 0 0.008617445410391904 0 0 0 0 0 0 0 0 0 0 0 0 0 0 0 0:375 
-0.0007408988068905851 -0 -0.05451744711767188 -0 -0.03746456614000329 -0 0 0.07787361229384487 0 0 0 0 0 0 0 0 0 0 0 0 0 0.1042325929990169 0 0 0 0 0 0 0 0 0 0 0 0 0 0 0:377 
-0 -0 -0 -0 -0.2994029971417881 -0 0 0 0 0 0 0 0 0 0 0 0 0 0 0 0 0 0 0 0 0 0 0 0 0 0 0 0 0 0 0 0:380 
-0.03055100406462349 -0.01520117859835661 -0.1174541286387741 -0 -0 -0 0.1441120858202673 0.1304171312089306 0.06404239126971108 0.001398921086027096 0.05678968712479695 0.109706485932819 0.04603596901912634 0.01023195222167191 0.1486699719021484 0.1565644010381357 0.09077347354968707 0.07900344709218908 0.01942171184795459 0 0.07711074035637447 0.02245232280734749 0.0812390496722767 0.03917449770235945 0 0.1501131252667657 0 0.06015241565096659 0 0.05127658008238892 0 0.008131275534865338 0.07284397810999002 0 0.0651750278789824 0.06149383515570749 0:382 
-0 -0 -0 -0 -0 -0 0 0 0 0 0 0 0.03058096322704097 0 0 0 0 0 0 0 0 0 0 0 0 0 0 0 0 0 0 0 0 0 0 0 0:387 
-0.03638034303814455 -0.0004968046249751086 -0 -0.02282652273201406 -0 -0 0.02320282093831418 0.07989129300729611 0.06461211381490639 0.09516211558590444 0 0 0 0 0 0 0 0 0 0 0.08478092481142614 0 0 0 0 0 0 0 0 0 0 0.03531082964385822 0 0 0 0 0:388 
-0 -0.07982230949876491 -0 -0 -0 -0 0 0 0.02721601343971732 0.007683178736094544 0 0 0 0 0 0 0 0 0 0 0 0 0.02661315080486651 0.01335268376274497 0 0 0 0 0.09743453403749551 0 0 0 0 0.01801790875948223 0 0 0:389 
-0 -0 -0 -0 -0 -0 -0 0 0 0 0 0 0 0 0 0 0 0 0 0 0 0 0 0 0 0 0 0 0 0 0 0 0 0 0 0.09903032302435409 0:391 
-0.01118561921642371 -0 -0 -0 -0 -0 -0 0 0.002617433350095287 0 0 0 0 0.03506800237935733 0 0 0 0 0 0.0004833291746058254 0 0 0.002371671720379156 0 0.04878166617754123 0 0 0 0 0 0 0.01565431184315616 0 0 0 0 0:392 
-0 -0 -0 -0 -0 -0 -0 0 0 0 0 0 0 0 0 0 0 0 0 0 0 0 0 0 0 0 0 0 0 0 0 0 0 0 0.0140997669603115 0 0:393 
-0 -0 -0 -0 -0 -0 -0 0 0 0 0 0 0 0 0 0 0 0 0 0 0 0 0 0 0 0 0 0 0 0 0 0 0 0 0.01198635458139957 0 0:401 
-0.02599710843901005 -0 -0 -0 -0 -0 -0 0 0 0 0 0 0 0 0 0 0 0 0 0 0 0 0.005253259734118748 0 0 0 0 0 0 0.1385267656910119 0.01133343862626086 0 0 0 0.01020368426207768 0 0:402 
-0 -0 -0 -0 -0 -0 -0 0 0 0 0.0497897623594306 0 0 0 0 0 0 0 0.009584658268611039 0.07011643259102514 0 0 0 0 0 0 0 0 0 0 0.0539482242092434 0 0.04895068784144454 0 0 0 0:404 
-0 -0 -0.09094239406605163 -0 -0 -0 -0 0.06746267157300054 0 0.08527320711018307 0.01509487923114105 0 0 0 0 0 0 0 0 0 0.070804544740366 0 0.01735187149158761 0 0 0 0 0 0 0 0 0 0 0.1114878130682003 0 0.03770245345423712 0:408 
-0 -0 -0 -0 -0 -0 -0 0 0 0 0.006523432183266231 0 0 0 0 0 0 0.03815539943797421 0 0 0.05561665324890866 0 0 0.004763249747455812 0 0 0 0 0 0 0 0 0 0.03266209229071824 0 0 0:409 
-0 -0 -0 -0 -0 -0 -0.00746711100211761 0.06153681323837307 0 0.02736417838477518 0.01146478084510477 0 0 0 0 0 0 0 0 0 0 0 0 0.03223728329617747 0 0 0 0 0 0 0 0 0.07818522127341819 0 0 0 0:412 
-0 -0.2006489280189471 -0 -0 -0.07397784051200661 -0 -0 0 0 0 0.04212916409161423 0 0.02463079804859873 0 0 0 0 0 0.09147262272629081 0 0 0.05730873906041922 0.04456305725780851 0 0 0 0.001628201382449619 0 0 0.1699143472151954 0 0 0 0 0 0 0:413 
-0 -0.006415975037491433 -0 -0 -0 -0 -0 0 0 0 0 0 0 0 0 0 0 0 0 0 0 0 0 0 0 0 0 0 0 0 0 0.04125021204490566 0 0 0 0 0:414 
-0.04355345504112918 -0 -0.02367657358695355 -0 -0 -0 -0.007775661292320645 0 0.09158893323867727 0.03591626776841703 0.05432104965109263 0.0321448080212896 0 0 0 0 0 0.04401023205470215 0 0 0 0 0.05685800769024892 0 0.009465698223250151 0.09155142056594111 0.05577406633258754 0 0 0 0 0.01428195224537057 0.06974478721656996 0 0.03970485138183095 0 0:416 
-0 -0 -0 -0 -0 -0 -0 0 0 0 0 0 0 0 0 0 0 0 0 0 0 0 0 0 0 0 0 0 0 0 0 0 0 0 0 0.0813571198765206 0:418 
-0.1474612472330435 -0.09040875005095034 -0.04726496723300556 -0.06117361765860214 -0.1165191446791095 -0.1089875398401595 -0.04601137055762692 0.06970652005513087 0.2696467365301825 0.0446476744611552 0.02409680381836631 0.03715105913615546 0.1587907706173978 0.1828891763431076 0.04696982432821581 0.1151198618775265 0.0835719908285428 0 0.1286394231898563 0.1218774257124353 0 0.09936915498296013 0.06355176201255294 0.001389198036585913 0.1893736748104194 0.02082364308488494 0.0854852484884053 0.02017422319942802 0.1102080038196793 0.08855712611861868 0.09504527838539543 0.05602249625178472 0.0145083319820592 0 0.07292254751430993 0 0:419 
-0 -0 -0 -0 -0 -0 -0 0 0 0 0 0 0 0 0 0 0 0 0 0 0 0 0 0 0 0 0 0 0 0 0 0 0 0 0 0.1395449237682131 0:421 
-0 -0 -0.2639903598168195 -0.1297475749186181 -0.09390207505047249 -0.09196774742886359 -0.09420894146342287 0.03465795421541616 0 0 0.04736291338605787 0.08283906715683388 0.1048982595614669 0 0.1517292177251933 0.1113224204988952 0.08711347251485638 0 0 0 0 0.08933995281385192 0 0 0 0.05570050562855132 0 0 0.03125767699854338 0 0 0 0 0 0 0.2400262444022492 0:425 
-0 -0 -0 -0 -0 -0 -0 0 0 0 0 0 0 0 0 0 0 0 0 0 0 0 0 0 0 0 0 0 0 0 0 0 0 0 0.1187115311621586 0 0:426 
-0 -0 -0.1045769307047448 -0 -0 -0 -0 0 0 0 0 0 0 0 0 0 0 0 0 0 0 0 0 0 0 0 0 0 0 0 0 0 0 0 0 0.09971899258883248 0:427 
-0.01612656417865598 -0 -0 -0 -0 -0 -0 0 0 0 0 0 0 0.03450674179854014 0 0 0 0 0 0.00903688446577791 0 0 0.03960213793799373 0 0 0 0 0 0 0 0.02455473572933684 0.1769090601164253 0 0 0 0 0:430 
-0 -0 -0 -0 -0 -0 -0 0 0 0.07140603334616183 0 0 0 0 0 0 0 0 0.05857648447702367 0 0 0 0 0 0 0 0 0.01591101394515526 0 0 0 0 0 0 0.02887938305658208 0 0:431 
-0 -0 -0.05638866332728497 -0 -0 -0 -0 0 0 0 0 0 0 0 0 0 0 0.0734439108601721 0 0 0 0 0 0 0 0 0 0 0 0 0 0 0 0 0 0 0:432 
-0.01572336561297156 -0.02377709541849152 -0 -0 -0 -0 -0 0.1359154474136194 0 0 0.03735229845326339 0.09956023242292282 0 0 0.05184387873845679 0.08761964484947297 0.05363257018342361 0.1478331006999049 0 0.008345567832426459 0 0 0.1496607296802583 0.1447141493574558 0 0.1101274635363016 0.02514043208485555 0.06978729416308652 0.05631759342077747 0 0.006375127307417567 0 0.005394945549030994 0 0.06970662752170866 0 0:433 
-0 -0.06047392410456562 -0 -0 -0 -0 -0 0 0 0 0 0.05100154007083328 0 0 0 0.001580831905223887 0 0 0 0 0.01501214747021722 0 0 0.07886179058019893 0 0.07915383909480557 0 0.1919147592537461 0 0 0 0 0 0 0 0 0:434 
-0.02309729088801631 -0 -0 -0.08151005277445328 -0.01184855688387947 -0.008442979861652851 -0.1061867175937973 0 0 0.006300403330352833 0 0.0007354763971277256 0 0 0 0 0 0 0 0 0.09694141022794674 0 0 0.01913638226861483 0 0 0 0 0 0 0 0.04165905433658823 0 0.052234690340244 0 0 0:435 
-0 -0 -0 -0 -0 -0 -0 -0 0 0 0 0 0 0 0 0 0 0 0 0 0 0 0 0 0 0 0 0 0 0 0.03154238382963493 0 0 0 0 0 0:438 
-0 -0 -0 -0 -0 -0 -0 -0 0 0 0 0.05391914160091235 0 0 0 0 0 0 0 0 0.001263666616388158 0 0 0 0 0 0 0 0 0 0 0 0 0 0 0 0:441 
-0 -0 -0 -0 -0 -0 -0 -0 0 0 0 0 0 0 0 0 0 0 0 0 0 0 0 0 0 0 0 0 0 0 0.01179374584352023 0 0.01003064968456298 0 0 0 0:443 
-0 -0 -0.03959631180659976 -0 -0 -0 -0 -0 0 0 0 0 0 0 0 0 0 0 0 0 0 0 0 0 0 0 0 0 0 0 0 0 0 0 0 0.04198930936277419 0:445 
-0 -0 -0 -0.06349734919495045 -0 -0.03523708089759643 -0 -0 0 0 0 0 0 0 0 0 0 0 0 0 0 0 0 0 0 0 0 0 0.1496144430148847 0 0 0 0 0 0 0 0:450 
-0.382123750058434 -0.1189444069021267 -0.2377736540404716 -0.290172301760423 -0.1964991161652326 -0.2071461928071275 -0.1500392644135028 -0.038844424906808 0.2014161898573816 0.05372462162893559 0.3005294978536264 1 0.1870209380793841 0.1846667837817144 0.3299244312717918 0.2486209967126206 0.2409419769496598 0.2226445678248061 0.1243505738975783 0.110033681898031 0 0.2136948511427532 0.16770706180325 0.09108139823509111 0.246201002866802 0.4099576446854403 0.2365418691294426 0.2027373333412503 0.259189641704808 0.08350809672943296 0.217302986305787 0.02827663465444169 0.1585182148974298 0 0.01141332250915554 0.02432414011599563 0:451 
-0 -0 -0 -0 -0 -0 -0 -0 0 0 0 0 0 0 0 0 0 0 0 0.01837804409062406 0 0 0 0 0.002909590822003142 0 0 0 0 0 0 0 0 0 0 0 0:452 
-0 -0 -0 -0 -0 -0 -0 -0 0 0.007568035300904537 0 0 0.008561564453645466 0 0 0 0.00847757742648079 0 0 0 0 0 0 0 0 0 0 0 0 0 0 0 0 0 0 0 0:453 
-0.001094691860925673 -0 -0 -0.02417611039578619 -0 -0 -0.299278956165362 -0 0 0 0 0 0.06354588006589058 0.03402431693926405 0 0 0 0 0 0.07983783816634309 0 0 0 0 0.04815575464502549 0 0 0 0 0 0.01717648060225516 0 0 0 0 0 0:455 
-0 -0 -0 -0 -0 -0 -0 -0 0 0 0 0 0.008600247172328376 0 0 0 0.05146036152370385 0 0 0 0 0 0 0 0.01781641902523743 0 0.03006559677427727 0 0.01234528063599938 0 0 0 0 0 0 0 0:456 
-0.02641876865547823 -0 -0 -0.02942494986841491 -0.0476964965157502 -0 -0 -0 0.1276860231415481 0 0.0597451719419221 0 0 0 0 0 0 0 0 0 0 0 0 0.01100188642946769 0.01574852780259371 0 0.04473146177607179 0 0 0 0 0 0 0.09239607147974152 0 0 0:457 
-0 -0 -0 -0 -0 -0 -0 -0 0 0 0 0.1302187682005813 0 0 0 0.001650638190791935 0 0.1896808719698263 0 0 0.06740923527483585 0 0.06316250429861943 0.07545262765962613 0 0 0 0 0 0 0 0.1251024384929849 0 0.06298828763344269 0.0668288714823613 0 0:458 
-0.1115475281995832 -0.07971219543923086 -0.2798813591138481 -0.05062490623402385 -0.1250279603517727 -0.05930914806974397 -0.04893855952861199 -0.3304349815887321 0.1305434511596006 0.1446640118027748 0.1801453701212716 0 0.1516045191403464 0.1205348728763064 0.1055344207739349 0.1705099149797683 0.09867021947385686 0.0007117992700051649 0.1594855168988152 0.04958926924291889 0.1508473963691744 0.1799620308841539 0.2947718121034453 0.1848464256630821 0.04119451934434152 0.2050663326845412 0 0.2148073085328552 0.02975247962427439 0.1389431390090211 0.05806895429794257 0.142390599313695 0.1629564526648088 0.1166297431434389 0.1666590947256198 0.2520184199893156 0:459 
-0 -0 -0 -0 -0 -0.1805065662230724 -0 -0 0 0 0 0.5175352453358273 0 0 0 0 0 0 0 0 0 0 0 0 0 0 0 0 0 0 0 0 0 0 0 0 0:460 
-0 -0 -0 -0 -0.01361443999870466 -0 -0 -0 0 0.01363626661011848 0 0 0 0 0 0 0 0 0.0271748996455324 0 0 0 0 0 0 0 0 0 0 0 0 0 0 0 0 0 0:461 
-0 -0 -0 -0 -0 -0 -0 -0 0 0 0 0 0.01865883680721536 0 0 0 0 0 0 0 0 0 0 0 0 0 0 0 0 0 0 0 0 0 0 0 0:462 
-0 -0 -0 -0 -0 -0 -0 -0 0 0.0006786707397418065 0 0 0 0 0 0 0 0 0 0 0 0 0 0 0 0 0 0 0 0 0 0 0 0 0 0 0:464 
-0 -0 -0 -0 -0 -0 -0 -0 0 0 0 0 0 0 0 0 0 0 0 0 0 0 0 0 0 0 0 0 0.1408333304599403 0 0 0 0 0 0 0 0:467 
-0 -0.06121027597791512 -0 -0 -0 -0 -0.1089140007307251 -0 0 0.1438491341981139 0 0 0 0 0 0 0 0.01976191898152655 0 0 0.06780952484444455 0 0 0.009920265599383818 0 0 0 0.01365030663407848 0 0 0 0 0 0 0 0 0:469 
-0 -0 -0 -0 -0 -0 -0 -0 -0 0 0 0 0 0 0 0 0 0 0 0 0 0 0 0 0 0 0.007759028793748645 0 0 0 0 0 0 0 0 0 0:470 
-0 -0 -0 -0 -0 -0 -0 -0 -0.02313593025084913 0 0 0 0 0 0 0 0 0.09954554383351331 0 0 0 0 0 0 0 0.05352871333183459 0 0.0559418327633816 0.01918224852817588 0 0.0376086154999276 0 0.09862912924314692 0 0 0 0:477 
-0 -0 -0 -0 -0 -0 -0 -0.1163184555821994 -0 0 0 0 0 0 0 0 0 0 0 0 0 0 0.1156066115289545 0 0 0.003978951848363618 0 0 0 0 0 0.1467990650169443 0 0 0.1097890895143717 0.04196372243955888 0:481 
-0 -0 -0 -0 -0 -0 -0 -0 -0 0 0 0 0 0 0 0 0 0 0 0 0 0 0 0 0 0 0 0 0.02510265846813372 0 0 0 0 0 0 0 0:482 
-0 -0 -0 -0.006687167765073396 -0 -0 -0 -0 -0 0 0 0 0 0 0 0 0 0 0 0 0 0 0 0 0 0 0 0 0 0 0 0 0 0 0 0 0:483 
-0 -0 -0 -0 -0 -0 -0 -0 -0 0 0 0 0 0 0 0 0 0 0 0 0 0 0 0 0 0 0 0 0.004006609173755423 0 0 0 0 0 0 0 0:484 
-0 -0.01382917966821007 -0 -0 -0 -0 -0 -0 -0 0 0 0 0 0 0 0 0 0 0 0 0 0 0 0 0 0 0 0 0 0 0 0 0 0 0 0 0:485 
-0.03888241614345208 -0.1196317525604276 -0 -0 -0 -0 -0 -0.0692013456117466 -0 0.04324911727410132 0 0 0 0.05388725105758185 0 0 0 0.02852629270939409 0 0.02817429100604138 0 0 0.005421461821783406 0.08724587730859719 0.07179130209684667 0 0 0.01536742449484818 0 0.07718630360286828 0 0 0.1054501611784008 0 0.01184940181034541 0 0:486 
-0 -0 -0.01623499692529307 -0 -0 -0.1678471156854493 -0.08141895711607235 -0 -0.04168204005998832 0 0.1429169395208401 0.1133876100233608 0 0 0.08897779636999355 0.1744815951931409 0.1118530765797928 0.04621782588907407 0 0 0 0 0 0 0 0.2405317189730048 0.002922655285304316 0.1108545502488573 0 0 0 0 0 0 0 0 0:487 
-0 -0 -0 -0 -0 -0 -0 -0 -0 0 0 0 0 0 0 0 0 0.01201856035036128 0 0 0 0 0 0.02862069268195555 0 0 0.006850127241057261 0 0 0 0 0 0 0 0 0 0:488 
-0 -0 -0 -0 -0 -0 -0 -0 -0 0 0 0 0 0.00709792557691123 0 0 0 0 0 0 0 0 0 0 0 0 0.001112623875031708 0 0 0 0 0 0 0 0 0 0:489 
-0 -0 -0 -0 -0 -0 -0 -0 -0 0 0 0 0 0 0 0 0 0 0 0 0 0 0 0 0 0.05158893733110168 0 0 0 0 0 0 0 0 0 0 0:492 
-0 -0 -0 -0 -0 -0 -0 -0 -0.1004945258900609 0 0 0 0 0 0 0 0 0 0 0 0 0 0 0 0 0 0 0 0 0 0 0 0 0.05467871579937601 0 0 0:493 
-0 -0 -0 -0 -0 -0 -0 -0 -0 0 0 0 0 0 0 0 0 0 0 0.00378509688434531 0 0 0 0 0 0 0 0 0 0 0 0 0 0 0 0 0:494 
-0 -0 -0 -0 -0 -0 -0 -0 -0 0 0 0 0 0 0 0 0 0 0 0 0 0 0 0 0.02896682875097263 0 0 0.02662289241014685 0 0 0 0.001736085180579727 0 0 0 0 0:495 
-0 -0.01132510315627204 -0 -0 -0 -0 -0.01217465884174402 -0.05456611377070134 -0 0 0 0 0 0 0 0 0 0 0 0 0.01669327565743227 0 0 0 0 0 0 0 0 0 0 0 0 0.02459461478941689 0 0.03838293658090605 0:496 
-0 -0 -0.02810432941907579 -0.009914070292511044 -0 -0.1464690025422997 -0 -0 -0.05194576865124537 0.01026429450071212 0 0.0602012508136354 0.03759521186426424 0 0 0 0 0 0.1209103821713825 0.007921326971106143 0 0 0.07423178914552282 0 0 0 0 0 0 0 0 0 0 0.02967728488279144 0 0.05741418120709769 0:497 
-0 -0 -0 -0.1008858293139931 -0.004214845359527646 -0.08875270569989158 -0.009397416888735979 -0 -0 0.01155066369217691 0 0.1171266361687894 0 0 0.0635704300642571 0.105046258641679 0 0 0 0 0 0.06227609699245642 0 0 0 0.05766871330735527 0.01647904195337567 0 0.1405719103027097 0 0 0 0 0 0 0 0:498 
-0.3006998432776295 -0.1730085669892009 -0.1003798961719979 -0.2696776228039592 -0.3456352524032751 -0.1617947680700254 -0.1976851239745121 -0.09199054478558207 -0.2383987290509816 0.102878988075061 0.2857115109038989 0.2099389777849759 0.4018242570623166 0.2992838957499806 0.1585934758796085 0.1808266258646192 0.2099167372095194 0.09521448212512088 0.1535659723038107 0.1638441554963165 0.09433456316912962 0.2300329949196042 0.2777771289405399 0.2458086450206775 0.2118305900421511 0.2259741365501731 0.1973262481528998 0.1111581674948155 0.2398282464190713 0.1563844106427973 0.2152753928380095 0.170206880604596 0.05916895719561503 0.06439160937051515 0.1611520087562917 0.06055545729260908 0:499 
-0 -0 -0.1121763312423817 -0 -0 -0 -0 -0.0317766433687256 -0.003988670255405042 0.02665812771302991 0 0 0 0 0 0 0 0 0 0 0.0283842214712094 0 0 0 0 0 0 0 0 0 0 0.007904891507640207 0 0.01177772883625729 0.03411427128375785 0.04770951189278622 0:500 
-0 -0 -0 -0 -0 -0 -0 -0 -0 0.05528170472327162 0 0 0 0 0 0 0 0 0 0 0.054505981185314 0 0 0 0.004623461980249156 0 0 0.08747414850387251 0 0 0 0.01813784988713723 0 0 0 0 0:501 
-0 -0 -0 -0 -0 -0 -0 -0 -0 0 0 0 0 0 0 0 0 0 0 0 0.01488023629830212 0 0 0 0 0 0 0 0 0 0 0 0 0 0 0 0:503 
-0 -0 -0.0987791221371299 -0.0146711177619443 -0 -0 -0.01197803679335644 -0 -0 0.02161580171741048 0 0 0 0 0 0 0 0 0 0 0 0 0 0 0 0 0.001367101477312269 0 0 0 0 0 0 0 0 0 0:508 
-0.1157680351992194 -0.05471781925315657 -0.08451298733158523 -0.04225788041526601 -0.02083931116233294 -0 -0.01962279780232741 -0 -0 0 0.005650179122934361 0 0 0.06516804304982224 0 0 0 0 0.0193082169762075 0.06371639546785973 0 0 0 0.001140787692985082 0.06500653259575419 0 0.1042106054839521 0 0.04008650048449286 0.001497820668031558 0.01413338046857385 0 0 0 0 0.009807624366199056 0:509 
-0 -0 -0 -0 -0 -0 -0 -0 -0 -0 0 0 0 0 0 0 0 0 0 0 0 0 0 0 0 0 0.04229874876934222 0 0 0 0 0 0 0 0 0 0:515 
-0 -0 -0 -0 -0 -0 -0.0100836175707509 -0 -0 -0.005823521872514985 0 0 0 0 0.04373423790228706 0 0.0740749876178616 0 0 0 0 0 0 0 0 0.006346604364881298 0 0 0.009651030458543616 0 0 0 0 0 0 0 0:525 
-0 -0 -0 -0 -0 -0 -0 -0 -0 -0 0 0 0 0 0 0 0 0 0 0 0.02517092468642931 0 0 0 0 0 0 0 0 0 0 0 0 0 0 0 0:707 
-0 -0 -0 -0 -0 -0 -0 -0 -0 -0 0 0 0 0 0 0 0 0 0 0 0.004761626852555372 0 0 0 0 0 0 0 0 0 0 0 0 0 0 0 0:715 
-0 -0 -0 -0 -0 -0 -0 -0 -0 -0 0 0 0 0 0 0 0 0 0 0 0.07552625349163528 0 0 0 0 0 0 0 0 0 0 0 0 0 0 0 0:728 
-0 -0 -0 -0 -0 -0 -0 -0 -0 -0 0 0 0 0 0 0 0 0.01053854080508268 0 0 0 0 0 0 0 0 0 0 0.0138919616492292 0 0 0 0 0 0 0 0:797 
-0 -0 -0 -0 -0 -0 -0 -0 -0 -0 0 0 0 0 0 0 0 0 0 0 0 0.001169411304939326 0 0 0 0 0 0 0 0 0 0 0 0 0 0 0:799 
-0 -0.08184176350390532 -0 -0 -0.01203049530858891 -0 -0 -0 -0 -0 0 0 0 0 0 0 0 0 0.03692772914374755 0 0 0 0.03256240513482644 0 0 0 0 0 0 0 0 0 0 0 0.08297762239966291 0 0:805 
-0 -0 -0 -0 -0 -0 -0 -0 -0 -0 0 0 0.03908451234536998 0 0 0 0.0009233758569081618 0 0 0 0 0 0 0 0 0 0 0 0 0 0 0 0 0 0 0 0:806 
-0 -0 -0 -0 -0 -0.003715112236223407 -0 -0 -0 -0 0 0 0 0 0.07571938260282245 0.04661111770351413 0 0.02422186737452328 0 0 0 0 0 0 0 0.03390171457370415 0 0.0802704207653686 0 0 0 0 0 0 0 0 0:807 
-0 -0 -0 -0.005469998566466107 -0 -0.1442714295309556 -0 -0 -0 -0 0 0.1798884644632549 0 0 0 0 0 0 0 0 0 0 0 0 0 0 0 0 0.07819691670134754 0 0 0 0 0 0 0 0:808 
-0 -0 -0 -0.04063293793434517 -0 -0 -0.07055536616732812 -0 -0 -0 0 0 0 0 0 0 0.142988523194518 0 0 0 0 0 0 0 0 0 0 0 0.03867312541434227 0 0 0 0 0 0 0 0:809 
-0.05586457023533438 -0.1216643559991529 -0.04326351613317576 -0 -0.0438192489359814 -0 -0.05627085759913725 -0 -0.06810510876913953 -0 0.02234368484093463 0 0.1120709086837104 0.009555740330680178 0.007384733026480946 0.06740953901157919 0.07805604453698957 0 0.06990424900794234 0.03687844903410913 0 0.0315156691730526 0.002074472404008021 0.03594596811310287 0.05238914996302613 0 0.02837902865844477 0 0.01249971142338373 0.04108579688620343 0 0 0 0 0.01355125409363053 0.02626650248153158 0:810 
-0 -0 -0 -0 -0 -0 -0 -0 -0 -0 0.01000663154586672 0 0 0 0 0 0 0 0 0 0 0 0 0 0.01993140932945896 0 0 0 0 0 0 0 0 0 0 0 0:811 
-0 -0 -0 -0.01354919216453283 -0 -0 -0 -0.03003076367613005 -0 -0 0.04178422583032913 0 0 0 0 0 0 0.0243129039108742 0 0 0.01228947517769765 0 0 0.01095023323951509 0 0 0 0 0 0.006438569173891 0 0 0.0121899541542044 0.1564556282146677 0 0 0:812 
-0 -0 -0 -0 -0 -0 -0 -0 -0 -0 0 0 0 0 0.05188208148678005 0.04485839910372565 0 0 0 0 0 0 0 0 0 0 0 0 0 0 0 0 0 0 0 0 0:813 
-0 -0 -0 -0 -0 -0 -0 -0 -0.02108789285922375 -0.001072860099074495 0 0 0 0 0 0 0 0 0 0 0 0 0 0 0 0 0 0 0 0 0 0 0 0 0 0 0:815 
-0 -0 -0 -0 -0 -0 -0 -0 -0 -0 0 0 0 0 0 0 0 0.006923948447724229 0 0 0 0 0 0.03752995338348764 0 0 0 0.04840553852856955 0 0 0 0 0 0 0.004473346245187093 0 0:818 
-0 -0 -0.04861031504921155 -0 -0 -0 -0 -0.02824271079486142 -0 -0 0 0 0 0 0 0 0 0 0 0 0 0 0 0 0 0 0 0 0 0 0 0 0 0 0 0 0:821 
-0 -0 -0 -0 -0.03223902592554017 -0 -0 -0 -0 -0 0 0 0 0 0 0 0 0 0 0 0 0 0 0.05628216206095165 0 0 0 0 0 0 0 0 0 0 0 0 0:823 
-0 -0 -0 -0 -0 -0 -0 -0 -0 -0 0 0 0 0 0 0 0 0 0 0 0 0 0 0 0 0 0 0 0 0 0 0 0 0.003734053006164288 0 0 0:824 
-0.0985198032015171 -0 -0 -0 -0 -0 -0 -0 -0 -0.03621236567568407 0.04083143377188292 0 0.1940222579896538 0.07065791869073153 0.04555042324763094 0 0.02680367704109963 0 0.04316174994558712 0.01007278048253297 0 0.2119340249632196 0.03492805047256708 0 0.04553662203342212 0.03319791345577271 0.01186235956827813 0 0 0.07435807451921728 0.0788697528977465 0.0335062161352333 0 0 0 0.005375291161562579 0:825 
-0 -0 -0 -0 -0 -0.002139597301430263 -0 -0 -0 -0 0 0 0 0 0 0 0 0 0 0 0 0 0 0 0 0 0 0 0 0 0 0 0 0 0 0 0:830 
-0 -0 -0 -0 -0 -0 -0.01649929450928767 -0 -0 -0 0 0 0 0 0 0 0 0 0 0 0 0 0 0 0 0 0 0 0 0 0 0 0 0 0 0 0:839 
-0 -0 -0 -0.1431686875716923 -0 -0 -0.03548256170053785 -0 -0 -0 0 0 0 0 0 0 0 0 0 0 0 0 0 0 0 0 0 0 0 0 0 0 0 0 0 0 0:904 
-0 -0 -0 -0 -0 -0 -0 -0.02671667807380404 -0 -0 0.01514247600669975 0 0 0 0 0 0 0 0 0 0.03810045863778009 0 0.02544759365423052 0 0 0 0 0 0 0 0 0 0 0 0 0 0:905 
-0 -0 -0 -0 -0 -0 -0 -0 -0 -0 0 0 0 0.0002044322833638002 0 0 0 0 0.02871832742671803 0 0 0 0 0 0 0 0 0 0 0 0 0 0 0.01203447949583538 0 0 0:911 
-0 -0.03967789308625797 -0 -0 -0 -0 -0 -0 -0 -0 0 0 0 0 0 0 0 0 0 0 0 0 0 0 0 0 0 0 0 0 0 0.01985801779010955 0 0 0.00535053399884543 0 0:915 
-0 -0 -0 -0 -0 -0 -0 -0 -0 -0 0 0 0 0 0 0 0 0 0 0 0 0 0 0 0 0 0 0 0 0 0 0 0 0 0.04178085526040552 0 0:916 
-0 -0 -0 -0 -0 -0 -0 -0 -0 -0 0 0 0 0 0 0 0 0 0 0 0 0 0 0 0 0 0 0 0 0 0 0 0 0 0.01291268907476444 0 0:917 
-0 -0 -0 -0 -0 -0 -0 -0 -0 -0 0 0 0 0 0 0 0 0 0 0 0 0 0 0 0 0 0 0 0 0 0 0 0 0.02015712373599203 0 0 0:920 
-0 -0 -0 -0 -0 -0 -0 -0 -0 -0 0 0 0 0 0 0 0 0 0 0 0 0 0 0 0 0 0 0 0 0 0 0 0 0.01868714042646352 0 0 0:923 
-0 -0 -0 -0 -0 -0 -0 -0 -0 -0 0 0 0 0 0 0 0 0 0 0 0.07034990474705918 0 0 0 0 0 0 0 0 0 0 0 0 0.002081988837012571 0 0 0:926 
-0.07915024155049127 -0.06684065077422977 -0 -0 -0 -0 -0.03570709599830695 -0 -0 -0.08711313394592352 0.1012692457132669 0.07124024831764414 0 0 0 0 0 0 0.0001962484261136165 0 0 0 0.01384487470693858 0.03335664663155165 0.09343112192324819 0 0.1069300804918902 0.07431350221188114 0 0.02299386155304019 0.04017108397099626 0 0.06039153378497334 0 0.00149161634058281 0 0:928 
-0 -0 -0 -0 -0 -0 -0 -0 -0 -0 0 0 0 0.06069907976934306 0 0 0 0 0 0 0 0 0 0.04040566556483489 0 0 0 0 0 0 0 0 0 0 0 0 0:929 
-0 -0 -0 -0 -0.01283087087368232 -0 -0.04256710316797405 -0 -0 -0 0 0 0 0 0 0 0 0 0 0 0 0 0 0 0 0 0 0 0 0 0 0 0 0 0 0 0:932 
-0 -0 -0 -0 -0 -0 -0 -0 -0 -0 0 0 0 0 0 0 0 0 0 0 0 0.01488696315012184 0 0 0 0 0 0 0 0 0 0 0 0 0 0 0:935 
-0.04305432033220713 -0 -0.1145650575249715 -0 -0 -0 -0 -0.1176604139021387 -0 -0.07471505316350843 0 0 0 0 0 0 0 0 0.0301929421858649 0 0 0 0 0 0.007389481178198608 0.006972178061708031 0 0.02362601074630882 0 0 0 0.02340284825341979 0.01234706703168861 0 0 0.1485609605500327 0:939 
-0.01047333921695396 -0 -0 -0 -0 -0 -0 -0 -0 -0 0 0 0 0 0 0 0 0 0.07088164598692101 0 0 0 0 0 0.008120422167385526 0 0 0 0 0.05474340588346822 0 0 0 0 0 0 0:940 
-0 -0 -0 -0 -0.0047021304733521 -0 -0 -0 -0 -0 0 0 0 0 0 0 0 0 0 0 0 0 0 0 0 0 0 0 0 0 0 0 0 0 0 0 0:943 
-0 -0 -0 -0 -0 -0 -0 -0 -0 -0 0 0 0 0 0 0 0 0 0 0 0 0.0265747257073886 0 0 0 0 0 0 0 0 0 0 0 0 0 0 0:949 
-0 -0 -0 -0 -0 -0 -0 -0 -0 -0 0 0 0 0 0 0 0 0 0 0 0.01300530323537703 0 0 0 0 0 0.009985344404171342 0.03063678064757389 0 0 0 0 0 0 0 0 0:952 
-0 -0 -0 -0.05058990275024979 -0.02372619765605793 -0.0314900067991203 -0 -0 -0 -0 0 0 0 0 0 0 0 0 0 0 0 0 0 0 0 0 0 0 0 0 0 0 0 0 0 0 0:954 
-0 -0 -0 -0.01580304596073143 -0 -0 -0 -0.02232521873565767 -0.04492553483900039 -0 0.006555364741862219 0 0 0 0 0 0 0 0 0.01764473722536751 0.3444317383758131 0 0.05244674078593985 0.01779132928828436 0 0 0 0 0 0 0.002799789677361827 0.04575952601757217 0 0.03095923057766811 0 0.02352150839757814 0:955 
-0.01642949962319405 -0 -0.06387636282339379 -0.01892542703472203 -0 -0.02176482172727405 -0 -0.0459319792184532 -0.1410440594650542 -0 0.03964186383545292 0.1285882317234154 0 0.09477548243554904 0 0 0 0 0 0 0 0.003539501938608247 0.1032736066058941 0.02783035660511664 0.01758678834855645 0.02137276876707246 0 0 0 0 0.05520455435210909 0.01171373270306439 0.07374496703185458 0 0 0.04064101499289648 0:957 
-0 -0 -0 -0 -0 -0 -0 -0 -0 -0 0 0 0 0 0 0 0 0 0 0 0 0 0 0 0 0 0 0.1047689701903993 0 0 0 0 0 0 0 0 0:961 
-0 -0 -0.01607843546228832 -0 -0 -0 -0 -0 -0 -0.00486818881989518 0 0 0 0 0 0 0 0.001878596871094373 0 0 0 0 0 0 0 0.06359276256955658 0 0 0 0 0 0 0 0 0 0 0:972 
-0 -0 -0 -0 -0 -0 -0 -0 -0.01139941727483873 -0 0 0 0 0 0 0 0 0 0 0 0 0 0 0 0 0 0 0 0 0 0 0 0 0 0 0 0:973 
-0 -0 -0 -0 -0 -0 -0 -0 -0 -0 0 0 0 0 0 0 0 0 0 0 0 0 0 0 0 0 0 0 0 0 0 0 0 0.002132233646264311 0 0 0:989 
-0 -0 -0 -0 -0 -0 -0 -0 -0 -0 0 0 0.005721311853230256 0 0 0 0 0 0 0 0 0 0 0 0 0 0 0 0 0 0 0 0 0 0 0 0:992 
-0 -0 -0 -0.05925777191991093 -0.02687127767190756 -0 -0 -0 -0 -0 0 0 0 0 0 0 0 0 0 0 0 0 0 0 0 0 0 0 0 0 0 0 0 0 0 0 0:998 
-0 -0 -0 -0 -0 -0 -0 -0 -0 -0 0 0 0 0 0 0 0 0 0 0 0.004003700859795849 0 0 0 0 0 0 0 0 0 0 0 0 0 0 0 0:1004 
-0 -0 -0 -0 -0 -0 -0 -0 -0 -0 0 0 0 0 0 0 0 0 0 0 0.1263173495085692 0 0 0 0 0 0 0 0 0 0 0 0 0 0 0 0:1007 
-0 -0 -0 -0 -0 -0 -0 -0 -0 -0 0 0 0 0 0 0 0 0 0 0 0.1297411430899947 0 0 0 0 0 0 0 0 0 0 0 0 0 0 0 0:1009 
-0 -0 -0 -0 -0 -0 -0 -0 -0 -0.02822569366826911 0 0 0 0 0 0 0 0 0 0 0 0 0 0 0 0 0.01549310482316758 0 0 0 0 0 0 0 0 0 0:1045 
-0 -0 -0 -0 -0.05308820906480372 -0 -0.09009699022176546 -0 -0.01996836937571578 -0 0 0.03024736319683841 0 0 0 0 0 0.001537498945146814 0 0 0 0 0 0 0 0 0 0 0 0 0 0 0 0 0 0 0:1085 
-0 -0 -0.06679271769116159 -0 -0.03169095222340401 -0.07304977036388731 -0.03258093201589393 -0 -0.05759035769761677 -0 0 0.003218557118140119 0.1617546155602558 0.01732328481874014 0.04362517495308844 0 0.06536068168421411 0.01003446890530555 0 0.02733352954101913 0 0.04537809506451934 0.03452673534765993 0 0 0.02741407897423133 0 0 0.04082408052815274 0 0.009362570559323205 0 0.0367001323433125 0 0 0 0:1086 
-0 -0 -0 -0 -0.1726501339178285 -0 -0 -0 -0 -0 0 0 0 0 0.02251124826122201 0.01403493510590042 0 0 0 0 0 0 0 0 0 0 0 0 0 0 0 0 0 0 0 0 0:1087 
-0 -0 -0 -0 -0 -0 -0 -0 -0 -0.03346788045089354 0 0 0 0 0.04032140198120562 0.1107733645759613 0 0.04185147735208774 0 0 0 0 0 0.02418972528195082 0 0.04607454020719296 0 0.01192985756198462 0 0 0 0 0 0 0 0 0:1088 
-0 -0 -0 -0 -0 -0.007020394007331945 -0 -0 -0 -0 0 0 0 0 0 0 0 0 0 0 0 0 0 0 0 0 0 0 0 0 0 0 0 0 0 0 0:1090 
-0 -0 -0 -0 -0 -0 -0 -0 -0 -0 0 0 0 0 0 0 0 0 0 0 0 0 0 0 0 0 0 0 0 0 0 0 0 0 0.01468513774700469 0 0:1095 
-0 -0 -0 -0 -0 -0 -0 -0 -0 -0 0 0 0 0 0 0 0 0 0 0 0 0 0 0 0 0 0 0 0.1036084120623283 0 0 0 0 0 0 0 0:1097 
-0 -0 -0 -0 -0 -0 -0 -0 -0 -0 0 0 0 0 0 0 0 0 0 0 0 0 0 0 0 0 0 0 0 0 0 0 0 0 0 0.04637459570084594 0:1098 
-0 -0 -0 -0 -0 -0 -0 -0 -0 -0 0.002921668265354616 0 0 0 0 0 0 0 0.005057790285293887 0.08367974254686018 0.08642376074717642 0 0 0 0 0 0 0.03372567722028251 0 0 0.006930543190439134 0.08773978505406768 0 0 0.02876325951681537 0 0:1100 
-0 -0 -0 -0 -0 -0 -0 -0 -0 -0 0.01463373610638546 0.03584140419082398 0 0 0 0 0 0.1004574006868666 0 0.01491774959773125 0 0 0.0208970456485771 0 0 0.02227138756803189 0 0 0 0 0 0 0 0 0 0 0:1102 
-0 -0 -0 -0 -0 -0 -0 -0 -0 -0 0 0 0 0 0 0 0 0 0 0 0 0 0 0 0 0 0.02468225932196185 0 0 0 0 0 0 0 0 0 0:1104 
-0 -0 -0 -0 -0 -0 -0 -0 -0 -0 0 0 0 0 0 0 0 0 0 0 0 0 0 0 0 0 0 0 0 0 0 0 0.01139626357090349 0 0 0 0:1107 
-0.1463600224442502 -0 -0 -0 -0 -0 -0 -0 -0 -0 -0 0 0.0004997019275467835 0 0 0 0 0 0 0 0 0 0 0 0 0 0 0 0 0 0 0 0 0 0 0 0:1118 
-0 -0 -0 -0 -0 -0 -0.05888398082322092 -0 -0 -0 -0 0 0 0 0 0 0 0 0 0 0 0 0 0 0 0 0.001086059753809113 0 0 0 0 0 0 0 0 0 0:1125 
-0 -0 -0.08928389824714071 -0 -0 -0 -0 -0.1031602270937771 -0 -0 -0 0 0 0 0 0 0 0 0 0 0 0 0 0 0 0 0 0 0 0 0 0.05826508418061385 0 0 0 0.1583932230053215 0:1126 
-0 -0 -0 -0 -0 -0 -0 -0 -0 -0 -0 0 0 0 0 0 0 0 0 0 0 0 0 0 0 0 0 0 0 0 0 0 0 0.09071388463888481 0 0 0:1127 
-0 -0 -0 -0 -0 -0 -0 -0 -0 -0 -0 0 0 0 0 0 0 0 0 0.002636739305744898 0 0 0 0 0 0 0 0 0 0 0.05270434265904561 0 0 0 0 0 0:1129 
-0 -0.1749342332324704 -0 -0.05279623419387744 -0 -0.08565090796709288 -0 -0.01242941176450185 -0.01702454014267457 -0.1221793132628679 -0.02820248832703167 0.1810425882457623 0.01335637223975228 0.02051116527311339 0.01021420930799958 0 0.05332728731321667 0 0 0.003212899192225522 0 0 0.1339140339616894 0.06390186846245391 0.07963628918875069 0.0214316521052775 0 0 0.09202060704085011 0 0 0.009790088053530882 0 0 0.02446949652081607 0 0:1134 
-0 -0 -0 -0 -0 -0.01648710864217692 -0 -0 -0 -0 -0 0.05542797733656586 0 0 0 0.01676864452756747 0 0.2929866597054617 0 0 0 0 0.07099861500668923 0.05694979101998973 0 0.01903600792020267 0 0 0.02167755628012434 0 0 0 0.005856231293136144 0.04731288545529407 0 0 0:1135 
-0 -0 -0 -0 -0 -0 -0 -0 -0 -0 -0.008427016528516502 0 0 0 0.0630958420694472 0.03773417012624339 0 0.01516603142024344 0.005019286346402665 0 0 0 0 0 0 0.1132131890420901 0.05322719260249113 0.2752241325128188 0 0 0 0 0 0 0 0 0:1136 
-0 -0 -0 -0 -0 -0 -0 -0 -0.09519580152378994 -0 -0 0.09051911979309425 0 0 0 0 0 0.09975037543756783 0 0 0 0 0 0 0 0.07098077685991103 0 0.05969149799920853 0 0 0 0 0.1555434236090666 0.01048860966109347 0 0 0:1137 
-0.1595899805536092 -0 -0 -0 -0.02040053400714528 -0.01580204672583624 -0 -0 -0.07587186339047534 -0 -0.02491504566331227 0.139535350731621 0 0.1322841461872422 0.04192682447353617 0 0 0 0.2103011173870677 0.02865980219345046 0 0.1044237768900938 0 0 0.02131184425553438 0 0 0 0 0.01641706150653434 0.2449494699989592 0.008733912903972031 0.02090541018935226 0 0 0 0:1138 
-0 -0 -0 -0 -0 -0 -0 -0 -0 -0 -0.03394269083964101 0 0 0 0 0 0 0 0 0 0.01647712839061454 0 0 0 0 0 0 0 0 0 0 0 0.02647348021292515 0 0 0 0:1139 
-0 -0 -0.05649457881081101 -0.0913276162542369 -0.1366771271896925 -0.2321782094326301 -0.1819486732954575 -0 -0.1141172814035535 -0.05231083713263358 -0 0.1188984295214656 1.951013103936527e-05 0 0.1892817826676075 0.1761173331528358 0.007562642187941206 0 0 0 0 0 0 0 0 0.03414778381711947 0 0 0.09695238187113392 0 0 0 0 0 0 0 0:1140 
-0 -0.06883716957240137 -0 -0 -0 -0 -0 -0 -0 -0 -0 0 0 0 0 0 0 0.004275243997059714 0 0.1071324870398574 0 0 0 0 0 0 0 0 0 0 0 0 0.002357868705054431 0 0 0.0253630360953563 0:1141 
-0.02455749099802449 -0 -0 -0 -0 -0 -0 -0 -0 -0 -0 0 0 0 0 0 0 0 0 0 0 0 0 0 0.05323261335768683 0 0 0 0 0 0 0 0 0 0 0 0:1143 
-0 -0 -0 -0.01270405574588087 -0 -0.01522857869747515 -0 -0 -0 -0 -0 0 0 0.03561659038185938 0 0 0 0 0 0 0.05412480385984956 0.09634227771204107 0 0.04924666341393955 0 0 0.04485404154414066 0 0 0 0 0 0 0 0 0 0:1144 
-0 -0 -0 -0 -0 -0 -0 -0 -0 -0 -0.04959820109903707 0 0 0 0 0 0 0 0 0 0.03878077938802667 0 0 0 0 0 0 0 0 0 0 0 0 0.04195644426835994 0 0 0:1145 
-0 -0 -0 -0 -0 -0 -0 -0 -0 -0 -0 0 0 0 0 0 0 0 0.04035509487696617 0 0 0 0 0 0 0 0 0 0 0 0 0 0.1117726266098519 0 0 0 0:1147 
-0.01958865084834483 -0 -0.0595304765206407 -0 -0 -0 -0 -0 -0 -0 -0 0 0 0 0 0 0 0 0 0.01824536665556185 0 0 0 0 0 0 0 0 0 0 0.04620439879578681 0 0.06537040604435874 0 0 0.08371153485693095 0:1148 
-0.1465701260302331 -0.0429888443727766 -0.04366402588547627 -0.07164900378358663 -0.0587841486744676 -0.001273283372305808 -0.08306118205365944 -0.141782638402483 -0.09549039725423007 -0.2532744382077898 -0.05942005314816236 0.1027478752681551 0.07220036409865557 0.05882106029926617 0.02966430240219908 0.1568414875661582 0.05642382657637181 0.1037201983221749 0 0.06290268051144726 0.1161230939777022 0 0.3168568194173674 0.2110326424875806 0.0649691223719276 0.1914428583611572 0 0.1886421099403172 0.01683559055785821 0.1028494684183648 0 0.1035820139973054 0.01522109097655542 0.0459523453942676 0.1297425427365894 0 0:1149 
-0 -0 -0 -0 -0.01334404068940584 -0 -0 -0 -0.02879324676027119 -0 -0 0 0.1590594967646463 0 0 0 0.04103432853304642 0 0 0 0 0 0 0 0 0 0 0 0.005523118971415599 0 0 0 0 0 0 0 0:1150 
-0 -0 -0 -0 -0 -0 -0 -0.03076280675857502 -0 -0 -0.07624214087043391 0 0.01927971377881717 0 0 0 0.002862400666487633 0 0.05917841516187456 0 0.04608503661013134 0.1134573131912933 0 0 0 0 0 0.03099442938516737 0 0.04511325582002893 0 0 0 0 0 0.00996389411877213 0:1151 
-0 -0 -0 -0 -0 -0 -0 -0 -0 -0 -0 0 0 0 0 0 0 0 0.02695414960322646 0 0 0 0 0 0 0 0 0 0 0 0 0 0 0 0 0 0:1152 
-0 -0 -0 -0 -0 -0.01942826247132015 -0 -0 -0 -0.003764330054577649 -0.00567802564107845 0 0.01271266691455047 0.08310472384953274 0 0 0.09710913809176996 0 0 0 0 0 0 0 0.1257123635542302 0 0.259468444999701 0 0 0 0 0 0 0 0 0 0:1154 
-0 -0 -0 -0 -0.009153280894912635 -0 -0 -0 -0 -0 -0 0 0 0 0 0 0.01587594113700462 0 0 0 0 0 0 0.04979818494624191 0 0 0 0 0 0 0 0 0 0 0 0 0:1155 
-0 -0 -0 -0 -0 -0 -0 -0 -0 -0 -0 0 0 0 0 0 0 0 0 0 0 0 0 0 0.04788218625123241 0 0 0 0 0 0 0 0 0 0 0 0:1156 
-0 -0 -0.1514217690539016 -0.1470772534895672 -0.1906957504734504 -0 -0.06665200001887492 -0 -0.1139269094418255 -0 -0.008704668540822056 0 0.02345551919784555 0 0.01924417431696705 0 0.05532300534335127 0 0 0.05689430034291236 0 0.03228024478663417 0 0 0 0 0.1885726199183299 0 0 0 0 0 0 0 0 0.07967458971390186 0:1158 
-0 -0 -0 -0 -0.04105542804728227 -0 -0 -0 -0 -0 -0 0 0 0 0 0 0 0 0 0 0 0 0 0 0 0 0 0 0 0 0 0 0 0 0 0 0:1161 
-0.06894984270849473 -0 -0 -0 -0 -0 -0 -0 -0 -0 -0 0 0.0453733455649385 0.0366538913093934 0 0 0 0 0 0 0 0.1240449221733344 0 0 0 0 0 0 0 0 0.02872590644486802 0 0 0 0 0 0:1163 
-0 -0 -0 -0 -0 -0 -0 -0 -0 -0.002749710889804378 -0 0 0 0.02901859234798661 0 0 0 0 0 0 0 0 0 0 0 0 0 0 0.05043145691797782 0 0 0 0 0 0 0 0:1164 
-0 -0 -0 -0.01121734738171365 -0.05498477094023516 -0 -0.08818969557630385 -0 -0 -0 -0 0 0 0 0 0 0 0 0 0 0 0 0 0 0 0 0 0 0.02625763627552647 0 0 0 0 0 0 0 0:1165 
-0.09624191887303485 -0 -0 -0 -0 -0 -0 -0 -0 -0 -0 0 0 0.01658584459608117 0 0 0 0 0 0 0 0 0.2725795071054631 0 0 0 0 0 0 0 0.1751663899079954 0.04644549633049489 0 0 0 0 0:1167 
-0 -0.147860350905296 -0 -0 -0 -0 -0 -0 -0 -0 -0 0 0 0.009798340579104194 0 0 0 0 0.1874645549727657 0.03435809927503464 0 0 0 0 0 0 0 0 0 0.1612218432143271 0 0.06077875457390869 0 0 0.08233342100702844 0 0:1168 
-0.04192792099329007 -0 -0 -0 -0 -0 -0 -0 -0 -0 -0 0 0.03294639491824167 0 0 0 0 0 0.06216353834718857 0 0 0 0 0 0.0421851943029883 0 0 0 0 0.01720931879862607 0 0 0 0 0 0 0:1169 
-0 -0 -0 -0 -0 -0 -0 -0 -0 -0 -0 0 0.00235645084271206 0.06334395798109364 0 0 0 0 0 0.03527538669334705 0 0.003148984137276695 0 0.06386617180725723 0.0610994517738272 0 0.009741380384589497 0 0 0 0 0 0 0.0248540672717666 0.005053306810588889 0 0:1170 
-0 -0 -0 -0 -0 -0 -0 -0 -0 -0.008774288859123187 -0 -0 0 0 0 0 0 0 0 0 0 0 0 0 0 0.1345331333426082 0 0 0 0 0 0 0 0 0 0 0:1171 
-0 -0 -0 -0 -0 -0 -0 -0 -0 -0 -0 -0 0 0 0 0 0 0 0 0 0 0 0 0 0 0.09315472301450264 0 0 0 0 0 0 0 0 0 0 0:1172 
-0 -0 -0.02434535362156513 -0 -0 -0 -0 -0 -0 -0 -0 -0 0 0 0 0 0 0 0 0.05615115910969395 0 0 0 0 0 0 0 0 0 0 0 0 0 0 0 0 0:1173 
-0 -0.001008641089961597 -0.1644156305780587 -0.2773629937289621 -0.0464537353577687 -0.407939016449538 -0.08910937482639059 -0 -0.2791233162716831 -0.06045548482910577 -0 -0 0.003685859280503959 0 0.2312144814008206 0 0.06515742818728072 0 0 0 0 0 0 0 0 0 0.02196545337850303 0 0.2680150118714147 0 0 0 0 0 0 0 0:1174 
-0 -0 -0 -0 -0 -0.004914720667540297 -0.1254018674650711 -0 -0 -0 -0 -0.0309083524137025 0 0.06623956895541508 0.08174413377537455 0.2662410595155701 0.03314982429223641 0.05490302530731501 0 0 0 0 0 0 0 0.1804070740865043 0 0 0.07262031070465212 0 0 0 0 0 0 0 0:1175 
-0 -0 -0 -0 -0 -0 -0 -0 -0 -0 -0 -0.04539725938041284 0 0 0.03568971881839299 0 0 0.5895003029908539 0 0.04165006180802144 0 0 0.0698732509579502 0 0 0 0 0 0 0 0.1059887390044225 0 0.02836081311810559 0 0 0 0:1176 
-0 -0 -0 -0 -0.1046002007860169 -0 -0 -0 -0.1549538277584583 -0 -0 -0.06803367306138144 0.09973676421018585 0 0.04048574726203942 0.0664551855475673 0.03943365629391486 0.02225188766955932 0 0 0 0.1079152091672806 0 0 0 0 0 0 0 0 0.1024538246412726 0 0 0 0 0 0:1177 
-0 -0 -0 -0 -0 -0 -0 -0 -0 -0 -0 -0 0 0 0 0 0 0 0 0 0 0 0.03010410627034014 0 0 0.04883585271068835 0 0.02304285068459311 0 0 0.002196477146604126 0.06698080269829039 0.1157637377021315 0.001804619443964204 0.008352775173364578 0 0:1178 
-0.3046880751195752 -0 -0 -0.2368754983095659 -0.06411191320122764 -0 -0.08617642996746691 -0.004422371789856509 -0.3484300172170656 -0.14153454605149 -0 -0.009467678748158943 0.05816440368112823 0.1362477997806375 0 0 0.002082037540656005 0 0 0.05531280675658432 0 0.02656210225932085 0.03008926614053702 0 0.1287856570904108 0.1063443022666671 0.1066722263090001 0 0 0 0.1839474050812097 0.03196439750629977 0 0 0 0 0:1179 
-0.06110514714387522 -0.2853493317803225 -0.2035483396470343 -0.112361870724919 -0.1217896771682229 -0.1192121453589826 -0.1993316315549763 -0.2028849660246992 -0.1882904812541749 -0.2805598787355347 -0.4308158846346182 -0.2568857165486971 0.2453011411107211 0.2706695681021689 0.1911548019331844 0.282874029232586 0.2206382454025813 0.04770111885119199 0.2774552987246959 0.06759356582870639 0.3127487195260585 0.2321493759587764 0.3113106526516945 0.3428603605770498 0.1237918582272679 0.2076576718138423 0.1714850905004973 0.473349189922191 0.281885374290106 0.1532066030137354 0 0.1853341180324582 0.1363553650887887 0.2033667767803527 0.1874416387994005 0.1951702153758474 0:1180 
-0 -0 -0 -0 -0 -0.3140822508391875 -0 -0 -0 -0 -0 -0 0 0 0 0 0 0 0 0 0 0 0 0 0 0 0 0 0.04861743143349832 0 0 0 0 0 0 0 0:1181 
-0.112507844869442 -0.05821175830968354 -0.03980598404980767 -0 -0.03325902581232208 -0 -0 -0.09612484539060706 -0.2318228293029518 -0 -0 -0.2774786607443112 0 0 0 0 0 0.01718442837569596 0.09364081696770447 0.03367080468448549 0 0.1129377291084182 0.1933853581131583 0.1528878394214428 0 0.01483775242531754 0 0.09031172664915718 0 0.1262345877873713 0 0.01171761166239497 0 0 0.05608166208908826 0.05432329607504294 0:1182 
-0 -0 -0 -0 -0 -0 -0 -0 -0.2872739695836201 -0 -0.01820838437549868 -0 0 0 0 0 0 0 0 0 0.01832674493915579 0 0 0 0 0 0 0 0 0 0 0 0 0 0 0 0:1183 
-0 -0 -0 -0 -0 -0 -0 -0 -0.1090724997411232 -0 -0 -0 0 0 0 0 0 0 0 0 0 0 0 0 0 0 0 0 0 0 0 0 0.008475129994821194 0 0 0 0:1184 
-0.1070173228575311 -0.01050296012177473 -0 -0 -0 -0 -0.03827331292905176 -0 -0.1027062140082439 -0.009330276315507865 -0 -0 0 0 0 0 0.01917164427579484 0.02168184788226632 0 0 0 0 0 0 0.1135384460041911 0 0.02078196422435878 0 0 0 0.03356277572057671 0 0.03065744124211002 0.01594950596229083 0 0 0:1185 
-0 -0 -0 -0 -0 -0 -0 -0 -0 -0 -0.02550362194307833 -0 -0 0 0 0 0 0 0 0 0.07495734420933355 0 0 0 0 0 0 0 0 0 0 0 0 0.00682160518981622 0 0 0:1188 
-0 -0 -0 -0 -0 -0 -0 -0 -0 -0 -0 -0 -0.001444126145785094 0 0 0 0 0 0 0 0 0 0 0 0 0 0 0 0 0 0 0 0 0 0 0 0:1189 
-0 -0 -0 -0 -0 -0 -0 -0 -0 -0 -0.03000114198106797 -0 -0.001554091622267239 0 0 0 0 0 0 0 0 0 0.004722917788823965 0 0.04239212168034939 0 0 0 0 0 0 0 0.03089979652021769 0.02726116931764754 0 0 0:1190 
-0 -0 -0 -0 -0 -0 -0 -0 -0 -0 -0 -0 -0 0 0 0 0 0.02455026760456056 0 0 0.009890987217600445 0 0 0 0 0 0 0 0 0 0 0 0 0 0 0 0:1191 
-0 -0 -0 -0 -0 -0 -0 -0 -0 -0 -0 -0 -0 0 0 0 0 0 0 0 0.03739548289799904 0 0 0 0 0 0 0 0 0.01350971857439088 0 0 0 0 0 0 0:1192 
-0 -0 -0 -0 -0 -0 -0 -0 -0 -0 -0 -0 -0 0 0 0 0 0 0 0 0 0 0 0 0.04077987422346433 0 0.08383455439791768 0 0 0 0 0 0 0 0 0 0:1193 
-0 -0 -0 -0 -0 -0 -0 -0 -0 -0 -0 -0 -0 0 0 0 0 0 0 0 0 0 0 0 0.05321043999235187 0 0 0 0 0 0 0 0 0 0 0 0:1194 
-0.0461497979917783 -0 -0 -0 -0 -0 -0 -0 -0 -0 -0 -0 -0 0 0 0 0 0 0 0 0 0 0 0 0.008980588335209205 0 0 0 0 0 0 0 0 0 0 0 0:1196 
-0 -0 -0 -0 -0 -0 -0 -0 -0 -0 -0 -0 -0 0 0 0 0.3701811552134867 0 0 0 0 0 0 0 0.002971160410259261 0 0 0 0 0 0 0 0 0 0 0 0:1197 
-0 -0 -0 -0 -0 -0 -0 -0 -0 -0 -0 -0 -0 0 0 0 0 0 0 0 0.02009416703418112 0 0 0 0 0 0 0 0 0 0 0 0 0 0 0 0:1200 
-0 -0 -0 -0 -0 -0 -0 -0 -0 -0 -0.1329265802017259 -0 -0 0 0 0 0 0 0 0 0 0 0 0 0 0 0 0 0 0 0 0 0 0 0 0 0:1201 
-0 -0 -0 -0 -0 -0 -0 -0 -0 -0 -0 -0 -0 0 0 0 0 0 0.03399969084404953 0 3.949894991608395e-05 0 0 0 0 0 0 0 0 0.00416423879426262 0.005843426851070621 0 0 0 0 0 0:1202 
-0 -0.06477262191394723 -0.07370642824785284 -0.05991339101689275 -0 -0 -0 -0.1222327960364923 -0 -0.002168038233431415 -0 -0 -0 0 0 0 0 0 0.05259111600625733 0 0 0 0.1044384823242702 0 0 0 0 0.04895944955594891 0 0.001834159779162321 0 0.0861254455294406 0 0 0.1031564669312231 0.09176653987817009 0:1203 
-0 -0 -0 -0 -0 -0 -0 -0 -0 -0 -0 -0 -0 0 0 0 0 0 0 0 0 0 0 0 0 0.01374433744253111 0 0 0 0 0 0.01642076654349486 0 0.03810727265416274 0 0 0:1204 
-0 -0 -0 -0 -0 -0 -0 -0 -0.08851607012626221 -0 -0 -0 -0 0 0 0 0 0 0 0 0 0 0 0 0 0 0 0 0 0 0 0 0 0 0 0 0:1205 
-0 -0 -0 -0 -0 -0 -0 -0 -0 -0 -0 -0 -0 0 0 0 0.05480575702799418 0 0 0 0 0 0 0 0 0 0 0 0 0 0 0 0 0 0 0 0:1206 
-0.04118265439740718 -0 -0 -0 -0 -0.09618173085467968 -0.2074145344433959 -0 -0.1348595913742618 -0 -0 -0.00782855808080745 -0.1271495799957005 0 0 0.07458295820743201 0 0.02288527313816088 0 0 0 0 0 0.02742635076127995 0 0 0 0 0 0 0 0 0.05851159085149592 0.03210942794757747 0 0 0:1207 
-0.127373210222692 -0 -0 -0.1186072912899198 -0.2014248612477415 -0 -0 -0.0361342026815217 -0 -0.143004028288382 -0 -0.1328915890083439 -0.07394746840035381 0.02442430683224019 0.06992182418403105 0.01702807614763768 0 0.008106335556890028 0.03272486345828697 0 0 0.07612931015860558 0.1493287906233967 0.07764905591638943 0 0 0 0 0 0.06382005616531232 0 0 0 0.004503028991749826 0.00358966926124988 0.01698137122601317 0:1208 
-0.002856161295495643 -0 -0 -0 -0 -0 -0 -0 -0 -0 -0 -0 -0 0 0 0 0 0 0 0 0 0 0 0 0 0 0 0 0 0 0 0 0 0 0 0 0:1209 
-0 -0.0007490410157120047 -0 -0 -0 -0 -0.05726593999772478 -0 -0 -0 -0 -0.05588007089064894 -0 0.02412512975372845 0 0 0 0.03222831724466227 0 0 0 0 0.005138897959733232 0 0.07375046389815794 0.05622501528323291 0.01857177417798835 0 0 0 0 0 0 0 0 0 0:1210 
-0 -0 -0 -0 -0 -0 -0 -0 -0 -0 -0 -0 -0 0 0 0 0 0 0 0 0 0 0 0 0 0 0 0 0 0 0.02291476494092277 0 0 0 0 0 0:1211 
-0.06968406713950227 -0 -0 -0 -0 -0 -0 -0 -0 -0.008148914799237255 -0 -0.07059100058912654 -0 0 0 0 0 0 0 0 0 0 0 0 0.08159189776197287 0 0.06932014736298282 0.02105160138245519 0 0 0 0 0 0 0 0 0:1212 
-0 -0 -0 -0 -0 -0 -0 -0 -0 -0 -0 -0 -0 0 0 0 0.5044232868853303 0 0 0 0 0 0 0 0 0 0.0001368396157428097 0 0.02835332925521256 0 0 0 0 0 0 0 0:1214 
-0 -0 -0.08469255378045304 -0 -0 -0.07513705490111558 -0 -0.002141246841242658 -0.02611429717759607 -0 -0.0575341112243336 -0 -0.07123408504640584 0.05129203782199786 0.4753246310861974 0.1634298270519951 0.04865676160171249 0.05265053325063781 0.03706841615802477 0 0.01425931170343218 0.601175315689444 0 0 0 0.1365069792806309 0 0.07412770813922386 0.007265970241371204 0.08214612659636919 0 0 0.07484397165434392 0 0 0.01689059454237427 0:1215 
-0.07234591682173766 -0.09929522623877998 -0 -0 -0.02314365537912663 -0 -0 -0 -0 -0 -0.09579359572069426 -0 -0 0 0 0 0.5038271065377244 0 0.01232973362774938 0 0.02381542557686267 0 0 0 0 0 0 0 0 0.02305825220457367 0 0 0 0 0 0 0:1216 
-0 -0 -0 -0.06811864455811048 -0.06514137732013042 -0.05964341779167252 -0 -0 -0 -0 -0 -0 -0.0005179863750506143 0 0 0 0 0 0 0 0 0 0 0 0 0 0.02480814814008975 0 0.1876737328083222 0 0 0 0 0 0 0 0:1217 
-0 -0 -0 -0 -0.03058936755681387 -0 -0 -0 -0 -0 -0 -0 -0 0 0 0 0 0 0 0 0 0 0 0 0.1205893336780376 0 0 0 0 0 0 0 0 0 0 0 0:1218 
-0 -0.09842606692934511 -0 -0 -0 -0 -0 -0.02329313668877291 -0 -0.003614464653519097 -0 -0 -0 0.06107612733887367 0 0 0 0 0 0 0 0 0 0.02829637422551034 0.03172588460621126 0.02092415314718296 0 0.0355454629464871 0 0.06077776464974523 0 0.04038267671261667 0 0 0.02764403251018141 0 0:1219 
-0 -0 -0 -0 -0 -0 -0 -0 -0 -0 -0 -0 -0 0 0 0 0 0 0 0.01164117086609421 0 0 0 0 0 0 0 0 0 0 0 0 0 0 0 0 0:1220 
-0 -0 -0 -0 -0 -0 -0.07325170744544569 -0 -0 -0 -0 -0 -0 0 0 0 0.1602849808318918 0 0 0 0 0 0 0 0 0 0 0 0 0 0 0 0 0.006264298953692921 0 0.0155032978327426 0:1221 
-0 -0 -0 -0 -0 -0 -0 -0 -0 -0 -0 -0 -0 0 0.008764528777072816 0.04765033206438173 0 0 0 0 0 0 0 0 0 0 0 0 0 0 0 0 0 0 0 0 0:1222 
-0.1432570829966877 -0 -0 -0 -0 -0 -0 -0 -0 -0.0118218174173263 -0 -0 -0.009771642998873467 0.1666998715252258 0 0 0 0 0.05266800565758532 0.05210394320257409 0 0 0 0.06184004673494303 0.09498891945563405 0 0 0 0.01474116734563815 0 0.2169449750685822 0.0410592380957167 0 0.00502771633747172 0.02454327153754103 0 0:1224 
-0.1813128558085798 -0.003157812397404293 -0 -0.01544967355516769 -0 -0 -0.008886414660834339 -0 -0 -0 -0 -0.01014254542211989 -0 0.03958901822787129 0 0 0 0 0.07458129822706699 0.1059625192634683 0 0 0 0 0.09636763433371209 0 0.03355622897774498 0.01077937259052253 0 0.01526263076471916 0 0 0 0 0 0.08174641455358783 0:1225 
-0 -0 -0 -0 -0 -0 -0 -0 -0 -0 -0 -0 -0 0 0 0 0.2162374466756719 0 0 0 0 0 0 0 0 0 0 0 0 0 0 0 0 0 0 0 0:1226 
-0 -0 -0.227425696628511 -0.03707780811550539 -0.09779170682556926 -0 -0.09614221682636372 -0.08706574860986735 -0.0004491448178115313 -0.1076750783760934 -0.1697974118551507 -0 -0 0 0 0 0 0 0 0 0.05056333187584987 0 0 0 0 0.03400710249019695 0.01558079520535421 0 0 0 0 0 0 0 0 0.09900953685430555 0:1227 
-0.05818297133109573 -0.03353562193952356 -0 -0.09217034448011288 -0.1249648937789267 -0.0973425216943401 -0.08936788941387103 -0.01745269736956651 -0.1014731652721602 -0.1548721675986228 -0.001097143506169437 -0.103925772387699 -0.1212691876981025 0.1043249421946734 0.1046694300416563 0.1570478770999855 0.2385907356030863 0.07596383359794412 0.03142264870621635 0.08796051447527641 0 0.2056192516820012 0.09922387291348519 0.0792672441335527 0.0701923257463993 0.09154367821195694 0.09498078664066036 0.0723000456819754 0.1921648479692252 0.02092101807293811 0.1698273851524686 0.1035251851118581 0.03536499488938025 0.02709416606539375 0.0664585667372833 0 0:1228 
-0 -0 -0.008173586603171731 -0 -0 -0 -0 -0 -0.08657971695071857 -0.008114959559968563 -0 -0 -0 0 0 0 0 0 0 0 0.005670358968010015 0 0 0.004180477606853259 0 0 0 0 0.06353725501096263 0 0 0 0 0.01021944673087006 0 0 0:1229 
-0 -0 -0 -0 -0 -0 -0 -0 -0 -0 -0 -0 -0 -0 0 0 0 0 0 0 0 0 0 0 0 0 0 0 0 0.01126176740257239 0 0 0 0 0.04397031226491531 0 0:1230 
-0 -0 -0 -0 -0 -0 -0 -0 -0 -0 -0 -0 -0 -0 0 0 0 0 0 0 0 0.02115941777951892 0 0 0 0 0 0 0 0 0 0 0 0 0 0 0:1232 
-0 -0 -0 -0 -0 -0 -0 -0 -0 -0 -0 -0 -0 -0.05259112566453743 0 0 0 0 0 0 0 0 0 0 0.1467253103658916 0 0 0 0 0 0 0 0 0 0 0 0:1233 
-0.7920946776982032 -0 -0 -0 -0 -0 -0 -0 -0 -0 -0 -0 -0 -0 0 0 0 0 0 0 0 0 0 0 0.2175207857376297 0 0 0 0 0 0 0 0 0 0 0 0:1234 
-0 -0 -0 -0 -0 -0.04519923973684938 -0 -0 -0 -0 -0 -0 -0 -0 0 0 0 0 0 0 0 0 0 0 0 0 0 0 0 0 0 0 0 0 0 0 0:1236 
-0 -0 -0.010702717761365 -0 -0 -0 -0 -0 -0 -0.04190666690866401 -0 -0 -0 -0 0 0 0 0 0 0.154243749247927 0 0 0 0 0.02452982912312976 0 0 0.005764450728089337 0 0 0 0 0 0 0 0.01598630864991494 0:1239 
-0 -0 -0 -0 -0 -0 -0 -0 -0 -0 -0 -0 -0 -0 0 0 0 0.06047803077810619 0 0 0 0 0.159668306446648 0 0 0 0 0 0 0 0 0.005112091693543644 0 0 0 0 0:1240 
-0 -0 -0 -0 -0 -0 -0 -0 -0 -0 -0 -0 -0 -0 0 0 0 0 0 0 0 0 0 0.0166820082039919 0 0 0 0 0 0 0 0.04000916267403663 0 0 0 0 0:1241 
-0 -0.01279876883583937 -0 -0 -0 -0 -0 -0 -0 -0.004261907372516832 -0 -0 -0 -0 0 0 0 0 0.09563696298450848 0 0.0008339010295426561 0 0 0 0.07388624856940079 0 0 0 0 0 0.07110623305877399 0.1030891376262752 0.05921192636095732 0.06037227554837156 0 0.05281361943567386 0:1242 
-0.4712039875059144 -0.1677692689096707 -0.1783804773133828 -0.2584169313145099 -0.2551188282917263 -0.1693892377960249 -0.3405373996724572 -0.08798276253095967 -0.2190210457862339 -0.2285014154889387 -0.2532159383284077 -0.284156382959219 -0.3365595777423316 -0.3879566826084276 0.224998463036324 0.1899977620667668 0.2510140730055415 0.121151855678397 0.1755033714192397 0.02008694345967892 0.1517659520820583 0.3133301489309783 0.237910619496698 0.2411078595701653 0.3265182382135117 0.2321977304812832 0.1835475959207373 0.2801093792688616 0.2350464260999311 0.1852100102697329 0.06497529126336415 0.07325037614451045 0.1158108670813512 0.08170705629695155 0.1076356622327429 0.1399000317740568 0:1243 
-0 -0 -0.01620495618714496 -0 -0 -0 -0 -0.1644811579900453 -0 -0 -0 -0 -0 -0 0 0.06812268304485231 0 0 0 0 0 0 0 0 0 0.07308302094469048 0 0 0 0 0 0.03403873653448914 0 0 0.06108601549921643 0.003705470285259538 0:1244 
-0 -0 -0.04035162098263614 -0.06337423968990435 -0.02511510391186082 -0.142994677488357 -0.02572722777619046 -0 -0.120204927811051 -0.09729481804449402 -0 -0.0855939195621111 -0.1365973590958898 -0.03098362542164559 0.06309819351909149 0.07498591333086768 0.04622339874264774 0.01432324799500501 0 0 0 0.09962924374731646 0 0 0 0.06745833107405008 0.08480243340126405 0.01575183564920774 0.07026878670969897 0 0.14445600251146 0 0.05619433309810404 0 0 0 0:1246 
-0 -0 -0 -0 -0 -0 -0 -0 -0 -0 -0 -0 -0 -0 0 0 0 0 0 0 0.02218764500169996 0 0 0 0 0 0 0 0.007418422941144639 0 0 0 0 0 0 0 0:1247 
-0 -0 -0 -0 -0 -0 -0 -0 -0 -0 -0 -0 -0 -0 0 0 0 0 0 0 0 0 0 0.02578213751565367 0.1072691788553903 0 0 0.00552057968797351 0 0 0 0.006637480059838968 0 0 0 0 0:1248 
-0.6056673931854835 -0.1869118848139716 -0 -0 -0.02351442976834442 -0 -0 -0 -0 -0.05347230761968233 -0 -0.1159880102833429 -0 -0 0 0 0 0.02079127530273537 0.1745001839464214 0.1636892557326086 0 0.04611409724107572 0.0298387376606029 0.06553616045104031 0.05178436783479762 0 0.04567848645535155 0 0 0.1325328912494613 0.2493355933881358 0.05912883789723359 0 0.004617496839362348 0.02240933850582235 0 0:1249 
-0 -0 -0 -0 -0 -0 -0 -0 -0 -0 -0 -0 -0 -0.09172382155020734 -0 0 0.06098154654727039 0 0 0 0 0 0 0 0 0 0 0 0 0 0 0 0 0 0 0 0:1262 
-0 -0 -0.0231608220919206 -0 -0 -0 -0 -0 -0 -0 -0 -0 -0 -0 -0 0 0 0 0 0 0 0 0 0 0 0 0 0 0 0 0 0 0 0 0 0 0:1267 
-0 -0 -0 -0 -0 -0 -0 -0 -0 -0 -0 -0 -0 -0 -0 0 0 0 0 0 0 0 0 0 0 0.02619213256403917 0 0 0 0 0 0 0 0 0 0 0:1268 
-0 -0 -0 -0 -0 -0 -0 -0 -0 -0 -0.004821293997018952 -0 -0 -0 -0 0 0 0 0 0 0 0 0 0 0 0 0 0 0 0 0 0 0 0 0 0 0:1270 
-0 -0 -0 -0 -0 -0 -0.004092828452055862 -0 -0 -0 -0 -0 -0 -0 -0 0 0 0 0 0 0 0 0 0 0 0 0 0 0 0 0 0 0 0 0 0 0:1273 
-0 -0 -0 -0 -0 -0 -0 -0 -0 -0 -0 -0 -0.1355937125402839 -0 -0 0 0 0 0 0 0 0 0 0 0 0 0 0 0 0 0 0 0 0 0 0 0:1274 
-0.06984712210362369 -0.03830287640927839 -0 -0 -0 -0 -0 -0 -0 -0.06887696362155617 -0 -0 -0 -0 -0.03719141052319357 0 0 0.08506650965879074 0.09279782925977269 0 0 0.04363118213482915 0.154269049432151 0.02881906145871206 0.08208571249002972 0 0 0 0 0 0.09098444055835181 0.03953605282799193 0.07096186506413921 0 0.03481260307116133 0 0:1276 
-0 -0 -0 -0 -0 -0 -0 -0 -0 -0 -0 -0 -0 -0 -0 0 0 0 0 0 0 0 0 0 0 0 0 0 0 0.0379040516823458 0 0 0 0 0.01827304080176646 0 0:1277 
-0.1643816065157472 -0.1066957966855856 -0.002806579129889766 -0.01656714950402269 -0 -0 -0.2000539166220723 -0.008931468557187688 -0.05445772929833377 -0.06810526452669914 -0.01013776307381952 -0.05266009140751922 -0.104580786568931 -0.06887170584519059 -0.1204601190190431 0 0 0.1550256268206405 0.05871250900232763 0.05564422649800069 0.03990193844336266 0 0.08337554500573754 0.1148806661164528 0.1276779287917182 0.2094614802723234 0.05846563750047627 0.07899352684978002 0 0.08220454223942114 0.05996227850889981 0.09016718913130312 0.0668427923589347 0.04987804292081609 0.09341002617616509 0.02486673592946595 0:1278 
-0 -0 -0 -0 -0 -0 -0 -0 -0.1473362543632684 -0.008240798205929122 -0 -0.2434638644204292 -0 -0 -0 0 0 0 0 0 0 0 0 0 0 0.05814211186277639 0.06775053285506799 0.06032619985137509 0 0 0 0 0 0 0 0 0:1279 
-0 -0 -0 -0 -0 -0 -0 -0 -0 -0 -0.02190335373940615 -0 -0 -0.01777439458080366 -0 0 0 0 0 0 0 0 0 0 0 0 0 0 0.03076114528619205 0 0 0 0 0 0 0 0:1288 
-0 -0 -0 -0 -0.1337602932632885 -0.01186208485694787 -0 -0 -0 -0 -0 -0 -0 -0 -0 0 0 0 0 0 0 0 0 0 0 0 0 0 0.05293325402572388 0 0 0 0 0 0 0 0:1289 
-0 -0 -0 -0 -0 -0.1945089158760089 -0 -0 -0 -0 -0.1014866078006798 -0 -0.2322239977129518 -0 -0 0 0 0 0 0 0.008123556411142591 0 0 0 0 0 0 0 0.1642717561222559 0 0 0 0 0.002576555207594277 0 0 0:1291 
-0.05730636058869993 -0 -0 -0.05410777057612678 -0.07977173450910979 -0.02681454769653023 -0 -0 -0 -0 -0 -0 -0.08349369853315561 -0 -0.07718656708068447 0.2850178718717682 0 0 0.1143331707701587 0.06390095396016038 0 0 0 0 0 0 0 0 0 0 0.0704193410961885 0 0 0 0 0 0:1292 
-0 -0 -0 -0 -0 -0 -0 -0 -0 -0 -0 -0 -0 -0.01695990942235655 -0 0 0 0 0 0 0 0.2241793260341776 0 0 0 0 0 0 0 0.01975314116264002 0 0 0 0 0 0 0:1293 
-0 -0 -0 -0.009198289362298426 -0 -0.03637379676894968 -0 -0 -0 -0 -0 -0 -0 -0 -0 0 0 0 0 0 0 0 0 0 0 0 0 0 0 0 0 0 0 0 0 0 0:1295 
-0 -0 -0 -0 -0.09281511082656832 -0 -0 -0 -0 -0 -0 -0.05730317940980824 -0 -0 -0 0 0 0.003353361346066458 0 0 0 0 0 0 0.002779519448194432 0.05101933283911874 0 0 0 0 0.004585436006200511 0 0 0 0 0 0:1296 
-0 -0 -0 -0 -0 -0 -0 -0 -0 -0 -0 -0 -0 -0 -0.01282468670604685 0 0 0 0 0 0 0.02622040541288933 0 0 0 0 0 0 0 0 0 0 0 0 0 0 0:1299 
-0 -0 -0 -0 -0 -0 -0 -0 -0 -0 -0 -0 -0 -0 -0 0 0 0 0 0 0 0 0 0 0 0 0 0.0643989408942284 0 0 0 0 0 0 0 0 0:1301 
-0 -0 -0 -0 -0 -0 -0 -0 -0 -0 -0 -0 -0 -0 -0 0 0 0 0 0 0 0.4394941217890661 0 0 0 0 0 0 0 0 0 0 0 0 0 0 0:1303 
-0 -0 -0 -0 -0 -0 -0 -0 -0.09663472776477067 -0.07163167918641609 -0 -0 -0.0243966878344896 -0 -0 0 0 0 0 0.01772841112437427 0 0 0 0 0 0 0.06461474323353177 0.01845319425542438 0.03556316928681376 0 0 0 0 0 0 0 0:1305 
-0 -0 -0 -0 -0 -0 -0 -0 -0 -0 -0 -0 -0 -0 -0 0.02953611299486591 0 0 0 0 0 0 0 0 0.006600104617586964 0 0 0 0 0 0 0 0 0 0 0 0:1306 
-0 -0 -0 -0 -0 -0 -0.04765226559142216 -0 -0 -0 -0 -0 -0 -0 -0 0 0 0 0 0 0 0 0 0 0 0 0 0 0 0 0 0 0 0 0 0 0:1307 
-0 -0 -0 -0 -0 -0 -0 -0 -0 -0 -0 -0 -0 -0 -0 0 0 0 0 0 0 0 0 0 0 0 0.009105443138083116 0 0 0 0 0 0 0 0 0 0:1308 
-0 -0 -0.1191720531226918 -0 -0.02769273989278218 -0 -0.07348959894757053 -0.1593187168593285 -0.03887651594541629 -0.006212187917606993 -0.1777116057740708 -0 -0 -0.2027753745010056 -0 0.3627801132045716 0.1720668619001489 0 0 0.03287004433773986 0.05159840399851096 0 0.05971894908692248 0.1114233358438781 0.001700956568938422 0.0079063462166918 0 0.1136314359836912 0 0.05209746413847216 0 0.01227360617430042 0.06450238968432136 0.04652288469435155 0.0311454656072845 0.09802542021056013 0:1309 
